#pragma once
// Auto-generated by scripts/export_weights.py — DO NOT EDIT
// Model: dcnn_refined_N5
// n_state=30, n_hidden=32, n_layers=1, horizon=5

#include "condensed_solver/types.hpp"
#include "condensed_solver/weights.hpp"

namespace condensed {

namespace weights_data {

// === Step 0, f1 (n_input=31) ===
alignas(4) static const Scalar W0_k1_f1[] = {
    1.64373629e-01f, -3.66729361e-02f, 2.15158752e-01f, 1.18420817e-01f, -2.43493591e-01f, 2.85373411e-01f, 1.56683821e-01f, 1.71638583e-01f,
    -2.23131820e-01f, -2.97684373e-02f, -7.75211855e-02f, 2.56058993e-01f, 8.63190720e-02f, 1.93656968e-01f, -3.39514807e-02f, -1.63656767e-01f,
    3.27508722e-02f, -2.61709646e-01f, 1.96578703e-01f, 7.89986395e-02f, 1.54852644e-01f, -8.72844191e-02f, 2.82418815e-01f, 2.35872673e-01f,
    1.67030098e-01f, -1.83216775e-01f, -1.99673978e-02f, -2.73717741e-01f, -2.07426305e-01f, 1.09829372e-01f, 1.46857294e-01f, 2.80505839e-01f,
    -1.04504785e-01f, -7.77241764e-02f, -1.82665132e-02f, -1.86317185e-01f, -2.22047097e-01f, -1.45770443e-02f, -1.63854391e-01f, 1.01888397e-01f,
    -3.77088487e-02f, 1.99606918e-01f, 1.20159061e-01f, -1.12580015e-01f, 1.99355881e-01f, 1.82858614e-01f, -6.75129726e-02f, -1.27003138e-01f,
    1.09497302e-01f, -2.16148510e-01f, -1.80055079e-01f, -2.95582638e-01f, 1.72154627e-01f, 9.89105140e-02f, 1.23099227e-01f, 1.68437419e-01f,
    -2.46505347e-02f, 4.12447176e-02f, -2.16121801e-01f, -2.31281956e-01f, 1.01041777e-01f, -1.73422763e-02f, 3.91416639e-02f, 1.58999314e-01f,
    8.08309920e-02f, 3.21476404e-02f, 3.55242964e-02f, -1.17629941e-01f, -2.81509299e-01f, -3.79695665e-02f, -1.71249196e-01f, -5.48828138e-02f,
    2.12041844e-01f, -1.59636308e-01f, -2.65018355e-01f, -1.31169665e-01f, -1.23843745e-01f, 9.71499088e-02f, 3.42192914e-02f, 1.70338925e-01f,
    9.85881242e-02f, -5.61678831e-02f, 1.88412231e-01f, -1.99816248e-01f, -2.86372756e-01f, -2.45971284e-01f, 1.33415610e-01f, -2.28736618e-02f,
    -2.03236933e-01f, 6.26865062e-04f, -2.08612738e-01f, 1.17792225e-01f, -3.23062347e-02f, -7.13872643e-02f, -1.19092747e-01f, 7.81695559e-02f,
    -8.29124337e-02f, -2.47410048e-01f, -2.29196459e-01f, 2.77138599e-01f, 2.45148414e-01f, 1.19824280e-01f, -1.40478023e-01f, 2.81505826e-01f,
    1.67250542e-01f, 1.30134113e-01f, -3.03830987e-02f, -1.36655063e-01f, -2.42165423e-01f, 2.41561438e-01f, -2.65342261e-02f, -1.78581981e-01f,
    -1.16426026e-01f, 4.75317414e-02f, -1.93936330e-01f, 2.13968570e-01f, 1.55111718e-01f, 1.31677774e-01f, -4.07441761e-02f, 7.63853044e-02f,
    5.04587813e-02f, 8.99079609e-02f, -2.49333407e-01f, -5.05155587e-02f, -2.75031496e-01f, -3.60550845e-03f, -1.02083273e-01f, -2.13285487e-01f,
    -2.37958219e-01f, 5.25867433e-02f, -1.97644219e-01f, 2.55072071e-01f, 4.86366838e-02f, -9.18781173e-02f, 5.45492949e-02f, -2.86317677e-01f,
    2.75135528e-01f, -1.06179378e-02f, 1.69641136e-01f, -2.50362000e-01f, -8.00500150e-03f, -5.57580339e-03f, 2.62695873e-01f, 4.30368314e-02f,
    -1.59063594e-02f, -1.39814602e-01f, -1.01058602e-01f, 1.24034415e-02f, -3.66531238e-02f, -2.87032752e-01f, 1.95775155e-01f, 2.37696463e-01f,
    -2.15850547e-01f, 3.24216861e-02f, -2.34854555e-01f, 1.03344056e-01f, -1.31259730e-01f, 9.56535808e-02f, 1.36196769e-01f, 1.61188495e-01f,
    -2.35355432e-01f, 2.49607107e-01f, -1.61871605e-01f, -2.77552466e-01f, 3.29114816e-02f, -7.74466297e-02f, 1.97873846e-01f, 1.84950883e-01f,
    -1.09716664e-01f, 2.71739637e-01f, -1.25449297e-01f, 9.03427754e-03f, -1.46420946e-01f, 2.61626142e-01f, -2.01235309e-01f, -2.73053628e-01f,
    -3.89417640e-02f, 2.95425338e-01f, 2.35006360e-01f, 1.49164812e-01f, 2.34475495e-01f, 2.36067984e-01f, 1.13150162e-02f, -1.10442569e-01f,
    1.63207459e-01f, 9.69967579e-02f, -7.58053627e-02f, -2.43319999e-01f, 1.48073767e-01f, -1.42523690e-01f, 2.62087890e-01f, -1.55417655e-01f,
    -2.26345241e-01f, 1.98667603e-01f, -2.08029410e-01f, -1.92439015e-01f, 5.96296749e-02f, 2.24737225e-01f, -1.82139201e-01f, -1.13805796e-01f,
    1.66442903e-01f, 2.83095856e-01f, 4.44711721e-04f, -2.13661498e-01f, -2.91638227e-01f, -1.62206382e-01f, -2.20906669e-01f, 1.06595204e-01f,
    -2.26900497e-01f, 3.79795897e-03f, 1.16557461e-01f, 4.86699655e-02f, -1.80134609e-01f, 1.82474716e-01f, 1.29244278e-01f, 1.43390402e-01f,
    -2.21365349e-01f, -2.25747718e-01f, 2.56537531e-01f, -6.14530837e-02f, -1.19430785e-01f, -6.84957279e-03f, 9.77185277e-02f, 2.73373954e-01f,
    -1.28132264e-01f, 2.54885058e-01f, -2.85084305e-01f, 3.31188254e-02f, 8.03850670e-02f, -2.36461558e-01f, -2.15796242e-01f, -4.85314084e-02f,
    2.79739147e-01f, 5.76255319e-02f, 2.59813933e-01f, 1.82616549e-01f, -1.95710391e-02f, 1.70858070e-01f, -2.89297930e-01f, -2.34513602e-01f,
    1.97657169e-01f, 1.78090253e-01f, -1.60415555e-01f, 1.84617544e-02f, 6.36094924e-02f, 2.20643372e-01f, 6.18642944e-02f, -5.24570584e-02f,
    -7.54895740e-02f, -4.44707482e-02f, 9.11586153e-02f, 2.20494379e-01f, -2.76618708e-02f, -1.51296262e-01f, -1.58002582e-01f, 1.47608568e-01f,
    1.89941258e-01f, -2.36833152e-01f, -2.60064686e-01f, 5.66601983e-02f, -2.12296053e-01f, 1.94798514e-01f, -1.13799196e-01f, -2.13676840e-01f,
    2.52582283e-01f, -2.00680966e-01f, -1.29167951e-01f, -2.07831963e-01f, -2.30705962e-01f, -2.87311190e-01f, -2.66762755e-01f, -1.95215117e-01f,
    -2.67970840e-01f, 5.46862897e-02f, 1.08428716e-01f, -6.38217259e-02f, -1.09205342e-01f, 2.71574221e-03f, 2.25002965e-01f, 2.10678976e-01f,
    -2.73914963e-01f, -1.91100954e-01f, -1.57953077e-01f, -1.50367455e-01f, 4.27395910e-02f, -5.02425446e-02f, -2.70447528e-01f, -7.58315169e-02f,
    1.42517692e-02f, -2.38996858e-01f, 2.00075132e-01f, -2.68822880e-01f, 2.54905121e-01f, -2.40532115e-01f, 2.06144971e-01f, 2.41591886e-01f,
    2.87742408e-01f, 1.81215528e-01f, 1.67686524e-01f, 8.54899656e-02f, 1.67397813e-01f, -2.19268675e-01f, 2.16408216e-02f, 8.53372211e-03f,
    2.14543286e-01f, -2.23203806e-02f, -6.89463023e-02f, 8.37379627e-02f, -1.40122009e-01f, -2.16138953e-01f, -1.32736356e-02f, -4.98663788e-02f,
    -1.60458036e-01f, -7.94929139e-02f, -8.01645301e-02f, -1.03502661e-01f, -7.23215522e-02f, 1.11446007e-01f, -1.21874115e-01f, 2.69314756e-01f,
    2.49808812e-01f, -1.14537430e-02f, -1.02983277e-01f, 2.12608739e-02f, 2.09136293e-01f, 9.15524043e-02f, 1.82635097e-01f, 1.96333656e-02f,
    7.97505776e-02f, -1.27106631e-01f, 1.40935897e-01f, -1.78557244e-01f, 1.16878877e-01f, 2.16431441e-01f, -2.20738298e-01f, 6.86278443e-02f,
    -2.42942551e-01f, 1.35429377e-01f, -2.49304069e-01f, 2.61563894e-01f, -2.17555242e-01f, 2.75328148e-01f, 1.80530506e-01f, 5.62092027e-02f,
    1.69574463e-01f, 1.77068903e-01f, 2.67616238e-01f, -1.47969988e-01f, 5.40455372e-02f, -2.42970481e-01f, 6.96994200e-02f, -1.97225218e-01f,
    3.89703669e-02f, 4.34583084e-02f, -2.04089082e-02f, 1.35790653e-02f, 1.58354034e-01f, 1.79546830e-01f, -4.70807065e-03f, 5.97560649e-02f,
    2.58741741e-01f, -2.28159847e-01f, -2.29737860e-01f, -2.47374593e-01f, 9.47179710e-02f, -4.88350195e-02f, 1.64592850e-01f, 1.02738848e-01f,
    -9.98173450e-02f, 2.39019928e-01f, 1.57519288e-01f, -1.37679035e-01f, -8.14847893e-02f, -1.11336012e-01f, -2.05433011e-01f, -2.11329976e-01f,
    2.61676478e-01f, -3.72575777e-02f, -7.00081063e-02f, 1.37811425e-01f, 3.17958392e-02f, 2.61683992e-01f, 1.68180896e-01f, -1.23782615e-02f,
    -7.41843159e-02f, 2.91978927e-01f, 1.30656142e-01f, 2.70716796e-01f, -2.28912854e-01f, 2.10320208e-01f, 8.22443304e-02f, -2.26846993e-01f,
    5.29548000e-02f, 1.11657819e-01f, -2.92618388e-01f, -2.74092229e-02f, 1.95239707e-01f, -1.22784585e-01f, -2.48711509e-02f, -3.46115238e-02f,
    -1.18843565e-01f, 2.51065137e-01f, 1.68776421e-01f, -2.33646953e-01f, 2.98220795e-01f, 2.27520015e-01f, -1.29654937e-01f, 2.02137948e-01f,
    -2.36148281e-01f, 2.99462838e-01f, 9.94108417e-02f, 9.00750093e-02f, -2.45735564e-01f, 2.38220039e-01f, -2.82600298e-01f, -1.55503165e-01f,
    -2.14186875e-01f, 1.66060764e-01f, -1.81077464e-01f, 2.46382936e-01f, 9.37614236e-02f, -2.78302374e-01f, -2.96742100e-01f, -2.69005250e-01f,
    6.35551066e-02f, 1.80889087e-01f, -1.56868308e-01f, 2.09645306e-01f, -2.65660836e-01f, 1.80578312e-01f, 2.56677258e-01f, 1.63265039e-01f,
    1.18872470e-01f, 2.02788131e-01f, -2.75909220e-01f, -1.78930734e-01f, -2.25045792e-01f, 2.71859412e-03f, 1.47112877e-01f, 7.80071067e-02f,
    2.10678660e-01f, -2.06872205e-01f, 1.40772655e-01f, -1.84175105e-01f, -1.37544749e-01f, 1.25942818e-01f, 2.88122871e-01f, 6.69261636e-02f,
    -2.67299811e-01f, 6.97853820e-02f, -2.74589669e-01f, 2.30487427e-01f, 1.25746971e-01f, -1.96123292e-01f, -2.44967397e-01f, -1.89880063e-01f,
    2.88016308e-01f, -2.48636145e-02f, 1.70448569e-01f, 8.18450053e-02f, 4.34478900e-02f, -2.12921847e-01f, 2.67614672e-01f, -1.19194420e-01f,
    4.68103295e-02f, 1.19865567e-01f, 8.95398931e-02f, 2.64356646e-01f, -2.10936606e-01f, 5.01164307e-03f, -5.75793656e-02f, -1.54987623e-02f,
    -2.28469484e-01f, -2.19543234e-01f, -1.33154673e-01f, -1.17177238e-01f, -4.32580718e-02f, 6.65925282e-02f, 8.07774705e-02f, -5.29134620e-02f,
    -5.47301343e-02f, -1.69422884e-01f, 5.29837490e-02f, -1.09775453e-01f, -2.78364099e-01f, -4.89599735e-02f, -1.55203949e-02f, -1.64644279e-01f,
    4.34747599e-02f, 3.94631403e-02f, 1.21201309e-01f, 8.87690893e-02f, 9.14598339e-02f, -1.10271509e-01f, 1.72459333e-01f, 2.94866302e-02f,
    -4.11490829e-02f, 7.56074886e-02f, -8.36055993e-02f, 7.64354676e-03f, 1.42023413e-01f, 2.31841732e-01f, 2.52634318e-01f, 2.17975511e-03f,
    1.21650688e-02f, 1.79922246e-01f, -1.11329585e-01f, 2.02429417e-01f, -3.51501209e-03f, -2.30485965e-01f, -2.56764512e-01f, 2.05195927e-01f,
    -2.66659250e-01f, -1.31633138e-01f, -9.95219757e-02f, -1.96203333e-01f, -1.11663978e-01f, 1.45615540e-01f, -2.91190294e-01f, 1.96304055e-01f,
    2.13928814e-01f, -7.66430561e-02f, -2.07832261e-01f, 6.05042448e-02f, -2.28196466e-01f, -8.10483834e-02f, 2.75057509e-01f, 2.97278684e-01f,
    1.63262935e-01f, -1.13423094e-01f, 1.12599029e-01f, 1.23243819e-01f, -6.72949829e-02f, 8.45331808e-02f, -2.93563413e-01f, -1.74565405e-01f,
    1.50529818e-02f, -2.01749217e-01f, -2.00455879e-01f, 2.01782574e-01f, 2.93479802e-01f, 3.35816568e-02f, 2.03441839e-01f, 2.94192999e-01f,
    -2.15042467e-01f, -3.10526320e-02f, -6.44563705e-02f, -2.51970430e-01f, 1.53198104e-01f, -3.97325836e-02f, -1.84038395e-02f, -2.09596216e-01f,
    -1.91444009e-01f, 2.44262173e-01f, -2.73210547e-01f, -1.60288629e-01f, -1.24764402e-01f, -5.88147456e-03f, 5.18671038e-02f, -4.02601449e-03f,
    -2.49530799e-01f, -1.53799528e-01f, 2.06153031e-01f, 8.25532203e-02f, 8.94894301e-02f, 1.02121953e-01f, 1.57741811e-01f, -2.65134911e-01f,
    -8.00349690e-02f, 2.37164612e-02f, -9.69261100e-02f, 2.06687324e-01f, -1.04564948e-02f, 1.61176554e-01f, 2.11209310e-01f, 2.87488974e-03f,
    2.45731346e-01f, 5.22743643e-02f, 2.10164579e-01f, -9.56455226e-02f, -7.09824881e-04f, 1.88466246e-02f, -2.37012170e-01f, -6.08684960e-02f,
    2.50402604e-01f, 7.84993442e-02f, -1.93496051e-01f, -9.66866186e-02f, -1.85038194e-01f, -2.85106121e-01f, 2.56476275e-01f, -3.10756030e-02f,
    -1.15478957e-01f, 5.90863149e-02f, -2.95611326e-01f, -1.33186736e-01f, 1.21820079e-01f, 8.02618638e-02f, 2.89083569e-01f, 7.22146258e-02f,
    -1.34964758e-02f, 1.56859538e-01f, 2.41996723e-01f, 1.32417568e-01f, 2.77926734e-01f, 1.69203102e-01f, 2.20080863e-01f, -2.31537557e-01f,
    1.39448102e-01f, -3.59467803e-02f, 3.18622814e-02f, 9.24614457e-02f, 2.81889070e-01f, 2.90746849e-01f, -1.27063053e-01f, 1.40252098e-01f,
    1.49990123e-01f, -9.21042832e-02f, -2.25678135e-01f, -2.75431824e-01f, 1.66405877e-01f, -6.18015491e-03f, 2.91324102e-01f, -2.10159263e-02f,
    2.86750187e-01f, -5.30543987e-02f, 1.76209290e-01f, -2.49108437e-01f, 3.32770261e-02f, 1.81235872e-01f, 2.54821000e-01f, 1.93549854e-01f,
    -2.77817564e-01f, -7.63785952e-02f, -2.70780917e-01f, -2.34430625e-01f, 1.05183377e-01f, 1.27954918e-01f, 1.64232410e-01f, 2.19273929e-01f,
    1.43658881e-01f, 1.80522955e-01f, -2.70621774e-01f, -1.59278910e-01f, 7.31386640e-02f, 2.14875183e-01f, -2.97299925e-01f, 8.77760527e-03f,
    1.06372440e-01f, -2.82235627e-01f, -5.91866655e-02f, 2.37380929e-01f, 1.02967685e-01f, -1.57404982e-01f, 2.11668678e-01f, -9.11811460e-02f,
    2.12006803e-01f, -1.20633809e-01f, 5.41921505e-02f, -6.18359594e-02f, -1.35104970e-01f, 2.31934537e-01f, -1.87443791e-01f, -2.49113045e-01f,
    -9.48438369e-02f, 1.30583489e-01f, 1.84458964e-01f, 2.99246022e-01f, -1.22182766e-01f, -5.52348293e-02f, -2.17907233e-01f, 4.49231578e-02f,
    2.98548022e-01f, 1.20528606e-01f, 5.71277042e-02f, -6.45785442e-02f, 2.49179256e-01f, -1.85004232e-03f, -2.19379852e-01f, -8.07729221e-02f,
    -2.59699999e-01f, -1.78812577e-01f, -2.89398731e-01f, -2.80320501e-02f, 8.07241590e-02f, -9.40245226e-02f, -4.77709371e-02f, 2.75525564e-01f,
    1.51177873e-01f, 2.45139822e-02f, -1.29275475e-01f, 2.38198079e-01f, -1.58941730e-01f, -1.04794362e-01f, 2.45438889e-01f, 1.77252332e-02f,
    1.45390770e-01f, 5.44468765e-02f, 9.20635254e-02f, -1.20370025e-01f, -1.55176763e-01f, -1.06504592e-01f, -2.06735062e-01f, 2.24588619e-01f,
    -1.30051840e-01f, 3.68936366e-02f, 1.75184655e-01f, 1.70294466e-01f, -3.69682448e-02f, -1.42456148e-02f, 2.96821049e-01f, 1.04758486e-01f,
    1.88783066e-01f, 2.41532382e-01f, 1.72553902e-01f, -1.88892393e-01f, 3.73024402e-02f, -2.38863506e-01f, 9.17532759e-02f, 2.73209657e-01f,
    7.63923858e-03f, -4.02165043e-02f, -2.78494349e-01f, 2.75864713e-01f, -2.38198390e-01f, -2.75352544e-01f, -1.52360033e-01f, -2.60681740e-01f,
    -2.69292946e-02f, 9.65268075e-03f, -1.12458031e-01f, -2.69423710e-01f, -2.33039779e-01f, -6.92973732e-02f, -2.63682930e-01f, 1.18913835e-01f,
    -1.75787675e-01f, -1.18757059e-01f, -6.35245337e-02f, -5.00342202e-02f, -2.99003575e-01f, -2.32757777e-01f, 2.17658738e-01f, -2.99260162e-01f,
    4.90041349e-03f, -6.29879610e-03f, -1.00143503e-01f, -4.12037879e-02f, 1.68348683e-01f, 2.04722224e-01f, -1.43790874e-01f, -1.06505735e-01f,
    -1.54510288e-01f, -1.20819597e-02f, 1.09955015e-01f, -1.63048275e-01f, -1.01558555e-01f, 2.58230771e-01f, -2.70858426e-01f, -2.35382369e-02f,
    1.26934825e-01f, -2.09727593e-01f, -2.71575588e-01f, -2.17076777e-01f, 2.51293916e-01f, -2.94444131e-01f, -1.87006815e-01f, -2.81229892e-01f,
    -2.33622319e-01f, 7.20895720e-02f, -1.55016655e-01f, 4.15272303e-02f, 5.41172297e-02f, 2.09661200e-01f, -2.97155164e-01f, 2.12021676e-01f,
    7.14714519e-02f, -2.02353908e-01f, 1.63762433e-01f, 2.13294925e-01f, -1.47441910e-01f, 2.51276209e-01f, -2.73255418e-02f, 6.20546726e-02f,
    2.90789720e-01f, -8.30783528e-02f, 1.87895607e-01f, -1.08960529e-01f, 1.79528113e-01f, 6.04403513e-02f, -1.70186583e-01f, -5.15843437e-02f,
    -1.09418619e-01f, -2.53134964e-01f, -2.82099138e-01f, -9.21128068e-02f, -2.88579511e-01f, -2.00707345e-01f, 1.35109993e-01f, 1.24854741e-01f,
    1.43148232e-01f, -1.09708097e-01f, 2.34011674e-01f, 5.62983288e-02f, -2.24384195e-01f, -2.13768803e-01f, 1.15857256e-01f, -1.96233638e-01f,
    4.37562095e-03f, 2.95064686e-01f, -2.97595437e-01f, -2.90052119e-01f, 2.95850749e-01f, 5.07833005e-02f, -2.23854015e-01f, 2.38381320e-01f,
    2.28228180e-01f, 2.17202479e-02f, 7.30752179e-02f, -1.36087685e-01f, -2.69688182e-01f, 5.67405653e-02f, -1.23146884e-01f, 9.81726280e-02f,
    2.01747106e-01f, -2.89103674e-01f, 5.74282648e-02f, -1.61231676e-01f, 2.24333099e-01f, -1.47801296e-01f, 6.64620799e-02f, 3.21245041e-02f,
    -6.23001000e-02f, 1.06572458e-01f, 1.35461781e-01f, 4.01626772e-02f, 1.55053342e-01f, 2.90050246e-01f, -4.84365673e-02f, 8.74983113e-03f,
    -2.92518073e-01f, 1.77617134e-01f, 1.21380402e-02f, -5.52231418e-02f, -2.43556822e-01f, 2.33793853e-01f, -6.29956560e-02f, 1.09548959e-01f,
    -2.10375506e-01f, 2.76929778e-01f, -1.92934943e-01f, -1.80274804e-01f, 2.15389716e-01f, 2.47549646e-01f, -1.72711555e-01f, -1.81194671e-02f,
    1.40096943e-01f, 2.27019440e-01f, -7.25683830e-02f, 1.02116921e-02f, 1.45029846e-01f, 1.38681586e-01f, 1.69776078e-01f, 4.19602912e-02f,
    -2.37230942e-01f, 2.42383975e-01f, 2.19343524e-01f, 1.78858461e-01f, -2.40082514e-01f, -1.77361580e-01f, 1.46160219e-01f, -2.86115943e-01f,
    2.87534780e-01f, -7.37131918e-02f, 1.31587520e-01f, 2.32542653e-01f, -6.32220671e-02f, -1.08520507e-01f, 6.52446773e-02f, 4.85936242e-02f,
    -5.45160134e-02f, 6.10648535e-02f, 2.61228822e-01f, -1.94158460e-02f, -1.81954692e-01f, -7.36764103e-02f, -6.35358104e-02f, -2.21334784e-01f,
    -2.02277100e-01f, 1.10737244e-01f, -9.63133475e-02f, 2.72939035e-01f, -1.53841953e-01f, -2.40645297e-01f, 1.52102738e-01f, 2.28621631e-01f,
    -1.33131986e-01f, -1.78747139e-01f, -1.88540319e-01f, 1.32073808e-02f, -1.89500153e-02f, -1.44336096e-01f, -2.72896130e-01f, -1.11051958e-02f,
    2.75599409e-01f, 9.15115205e-02f, -2.69606602e-03f, -2.33584756e-01f, -1.48538226e-01f, -1.23135630e-01f, 1.58882132e-01f, 2.26026478e-01f,
    2.40985112e-01f, 2.90741165e-01f, 2.89420010e-01f, 2.71799480e-01f, -2.56906716e-01f, -2.17323878e-01f, -1.17320084e-01f, 3.17389524e-02f,
    -2.41813267e-01f, 2.07478175e-01f, 7.00537074e-02f, 2.54186414e-02f, -2.00813206e-01f, -1.48046715e-01f, -2.03812785e-01f, 2.11159895e-01f,
    5.05367160e-02f, 1.41077657e-01f, -1.22380282e-01f, -7.72484177e-02f, -5.70870213e-02f, 1.56008983e-01f, 1.63411793e-01f, -1.75911883e-01f,
    2.64923314e-01f, -2.27606798e-01f, 2.37673249e-01f, -2.39762613e-01f, -1.41276113e-01f, 2.07887122e-01f, -1.92304757e-01f, -5.18592412e-02f,
    -3.00844200e-02f, -1.52844616e-01f, 1.26147121e-01f, 2.10800790e-01f, 2.24745084e-01f, -9.64067126e-02f, 1.85102366e-02f, -1.50956158e-01f,
    -1.53122099e-01f, -2.03247562e-01f, 2.64011406e-01f, 2.32793297e-01f, 1.66415228e-01f, 1.05969128e-02f, -5.63525069e-03f, 1.78473997e-02f,
    2.19408081e-02f, -3.92621492e-02f, -2.20947100e-01f, -2.24601688e-01f, 2.71349830e-01f, -1.07815442e-02f, 2.71923315e-01f, -2.01853873e-01f,
    3.26499312e-02f, -1.75369648e-01f, -1.48089236e-01f, -2.81967253e-01f, -2.28628014e-01f, 2.50109045e-01f, -1.07080205e-01f, 6.48775271e-02f,
    -2.09915208e-02f, -5.97292529e-02f, 1.91316548e-02f, -1.87656633e-01f, 2.93162339e-01f, 1.90984721e-01f, 1.44968780e-01f, -1.87444218e-02f,
    -2.08273727e-01f, 2.52399515e-01f, -9.51677596e-02f, -2.69935986e-01f, -9.45577939e-02f, 1.76674218e-01f, 7.36252470e-02f, 1.50503151e-01f,
};
alignas(4) static const Scalar b0_k1_f1[] = {
    1.76181230e-01f, -1.72827233e-01f, 2.54269990e-01f, -3.72062382e-02f, 8.34081896e-02f, -2.98614736e-01f, 2.96021099e-01f, -1.31462168e-01f,
    -2.62762136e-01f, -2.50427751e-02f, -2.22581966e-01f, -2.08603974e-01f, 7.93696878e-02f, -6.42435651e-02f, 2.53111470e-01f, -1.08506103e-01f,
    1.35708077e-01f, -2.33403419e-02f, 9.59707807e-02f, 5.98172140e-02f, -1.63296163e-02f, 2.70036657e-01f, -9.43718143e-02f, -1.93658699e-01f,
    1.06856437e-01f, 2.07604537e-01f, -2.75847756e-01f, -3.02203869e-02f, 2.35492614e-01f, 1.49771171e-01f, 2.95084630e-01f, 1.88482870e-02f,
};
alignas(4) static const Scalar Wx0_k1_f1[] = {
    9.59974313e-02f, -1.18511831e-01f, 2.68521360e-01f, -8.01987069e-02f, 1.43106428e-01f, -5.81158775e-02f, 3.70913580e-02f, 1.31869521e-01f,
    5.36049105e-03f, 2.44251796e-01f, -4.84194072e-02f, 8.82430789e-02f, -9.45825400e-02f, -5.51059991e-02f, -3.59699351e-02f, -2.24515789e-01f,
    -2.44965793e-01f, 1.00493954e-01f, 9.33106430e-02f, 9.77458285e-02f, -2.88140133e-01f, -1.04071894e-01f, -1.81314092e-01f, 1.66890854e-01f,
    2.16378241e-01f, -1.51991774e-01f, 1.00709495e-01f, -2.22382318e-01f, -1.34908485e-01f, -2.16807302e-01f, -1.29887540e-01f, 1.04841928e-01f,
    2.46196146e-01f, -1.78486555e-01f, 2.52474210e-02f, 1.20834661e-01f, 2.71753481e-01f, 6.60362897e-02f, 0.0f, -1.46935841e-01f,
    7.52868941e-02f, -1.07705303e-01f, 2.85677034e-01f, -6.01943189e-02f, 1.11256632e-01f, -2.86063451e-01f, -5.99631323e-02f, 2.25064568e-01f,
    6.61364667e-02f, -3.36342682e-02f, 2.61562500e-01f, 2.12390626e-01f, -1.06670596e-01f, 2.67290412e-02f, -6.10544634e-03f, 7.93215001e-02f,
    -9.95332398e-02f, -1.53477000e-01f, 2.47603101e-01f, 2.54324700e-01f, 2.05993731e-01f, 2.86922658e-01f, 1.46994915e-01f, 1.58800337e-01f,
    1.57554055e-01f, -1.16354214e-02f, -2.61286833e-02f, -1.55864234e-01f, 8.68915166e-02f, -1.26407918e-01f, 0.0f, -1.45314954e-01f,
    5.15768245e-02f, -5.40105671e-02f, -1.68686035e-01f, 1.89633610e-01f, 2.16341952e-01f, -1.99380288e-01f, -2.95495780e-01f, -9.83220189e-02f,
    1.78506501e-01f, 2.03504320e-01f, -2.17002558e-01f, 1.64601541e-01f, -2.30577500e-01f, -6.59624459e-02f, 2.99165709e-01f, -1.84445506e-01f,
    -2.07621850e-01f, -4.63198005e-02f, 7.18011156e-02f, 2.59740469e-01f, 2.88492687e-01f, -2.58215618e-01f, -2.17201490e-01f, 1.74442784e-01f,
    -1.37620709e-01f, 2.30909436e-01f, 9.80719543e-02f, -2.32893119e-01f, 1.99517571e-01f, -1.94186172e-01f, 0.0f, -4.59027632e-02f,
    3.13109571e-02f, 4.59689448e-04f, 1.11697749e-01f, 9.16120409e-02f, 2.95225203e-01f, 2.99653146e-01f, 9.87564158e-03f, -2.42880548e-01f,
    1.36705979e-01f, 2.85998447e-01f, -1.09004167e-01f, -2.32746685e-02f, -4.51338451e-02f, -2.69148507e-01f, 1.03358659e-01f, -8.79973830e-02f,
    1.72478325e-01f, 1.99272045e-01f, 1.92738472e-01f, -5.00004012e-02f, -1.07072591e-01f, 1.49292468e-01f, 1.80833660e-01f, -5.24553217e-03f,
    2.35818612e-01f, -2.13654782e-01f, 2.27441268e-01f, -2.42342860e-01f, -2.07884687e-01f, 2.03040080e-02f, 0.0f, -2.59488912e-01f,
    -2.68315739e-01f, -2.99688754e-01f, -3.82100042e-02f, 1.64774329e-01f, -2.79096990e-01f, 9.13545639e-02f, 1.93876390e-01f, -1.99199491e-01f,
    -2.11881759e-01f, 2.16480584e-01f, 1.93874766e-01f, 2.33650598e-02f, 1.91519928e-01f, -2.44346354e-01f, -6.33110892e-02f, 1.42678534e-01f,
    -1.45528824e-01f, 1.51397349e-01f, 2.50716263e-03f, 1.50159593e-01f, -2.11922173e-02f, -7.92573959e-02f, -1.68486470e-01f, -1.74972395e-01f,
    1.50894486e-01f, -2.28653791e-01f, -2.48410590e-01f, -1.94225181e-01f, -1.94792093e-01f, 1.93864574e-01f, -6.08960259e-02f, 2.94233074e-01f,
    -2.17673245e-01f, 9.21238954e-02f, -3.07622957e-02f, -6.42490940e-02f, 2.25050519e-01f, 2.85357387e-01f, 2.23715375e-01f, -1.84619593e-01f,
    -1.67521247e-01f, 9.36443275e-02f, -1.26549851e-01f, 1.40835078e-01f, 3.98523905e-02f, 3.05452611e-02f, 1.97128155e-01f, 1.26319663e-01f,
    -2.84053341e-01f, -2.70324518e-01f, 6.09350715e-02f, -8.28475463e-03f, -1.43889207e-01f, -4.88063476e-02f, 1.54746191e-01f, 1.95966891e-01f,
    3.67338407e-02f, -6.87783115e-02f, -1.37581943e-01f, 1.31510825e-02f, -1.11150229e-01f, 3.84570822e-02f, 1.05991430e-01f, 0.0f,
    -2.60352473e-01f, -2.99359521e-01f, 0.0f, -1.72633717e-01f, 2.36706899e-01f, 8.77744579e-02f, -1.96823789e-01f, 2.34158377e-01f,
    -1.80264358e-02f, -1.43449460e-02f, 2.61325166e-01f, -2.64307985e-01f, -1.70893035e-01f, 5.14627951e-02f, 0.0f, -1.82708094e-01f,
    1.07716206e-01f, -1.71544626e-01f, -2.40505818e-01f, -1.75808904e-01f, -4.63595794e-02f, -1.94317020e-01f, -2.19184785e-01f, 2.16169132e-01f,
    -1.07761678e-01f, -8.35447881e-02f, -2.66837754e-01f, -8.55782259e-02f, -1.41115694e-01f, 6.62910404e-02f, 0.0f, -1.76765821e-01f,
    2.33019272e-01f, 2.57799973e-01f, -2.40101366e-01f, -2.35558226e-01f, -2.30804137e-01f, 7.17415538e-02f, -2.26818621e-01f, 2.11429391e-01f,
    1.52562909e-01f, 1.91885315e-01f, 1.56363161e-02f, 2.98006327e-01f, 0.0f, -2.73494938e-01f, -5.92410215e-02f, -1.05637999e-01f,
    2.69187299e-01f, 4.61165751e-02f, 1.83714579e-01f, -1.97795284e-01f, 2.87180486e-01f, -8.16271874e-04f, -3.79675424e-03f, 2.82530837e-01f,
    -7.15605833e-02f, -6.14849853e-02f, 5.08516217e-02f, -2.23168434e-01f, -1.07348624e-01f, -1.84075007e-01f, -2.38029913e-01f, 2.19686764e-01f,
    5.35986997e-02f, -8.47963251e-02f, -5.47983736e-02f, -4.10885978e-02f, 7.98895093e-02f, 2.56061635e-01f, 2.59667772e-01f, -6.51048123e-02f,
    -1.02442524e-01f, -2.93720999e-02f, 4.07605383e-02f, -2.29092531e-02f, 9.52520459e-02f, 3.26394140e-02f, -1.07570672e-01f, -9.25615165e-02f,
    -7.28443275e-02f, -2.43216139e-01f, -2.00362421e-01f, 1.33868281e-01f, -6.65419731e-02f, -1.71276616e-01f, 3.76034463e-02f, 1.53323725e-01f,
    -1.45546583e-01f, 1.96073929e-01f, 2.56502916e-01f, 5.84367174e-02f, 1.01368595e-01f, -2.68454406e-01f, 0.0f, 2.67311935e-01f,
    -6.45091594e-02f, 2.54340240e-01f, 4.73865149e-02f, -2.97228721e-01f, -2.76874800e-01f, 1.08251283e-01f, 3.76008083e-02f, -2.84080538e-01f,
    1.46075977e-01f, 2.11287202e-01f, -2.14951054e-03f, -2.05455358e-02f, -2.96716135e-01f, 1.71989827e-01f, -1.01570360e-01f, 2.27258172e-01f,
    0.0f, -7.61636475e-02f, 3.90467464e-02f, -1.37794927e-01f, -2.03647012e-01f, 1.64944742e-01f, -2.04571269e-03f, 2.18927543e-02f,
    2.79249572e-01f, 2.78147947e-01f, 2.13385273e-01f, -1.87434424e-01f, 5.65636166e-02f, 2.26888455e-01f, -7.53216381e-02f, -2.39336300e-01f,
    1.86577741e-01f, -1.09418692e-02f, 3.86356082e-02f, 2.89286578e-01f, 6.43268583e-02f, -4.50123686e-02f, -7.80093793e-02f, -4.94284244e-02f,
    -2.28960550e-01f, 1.76850335e-01f, 2.02630115e-01f, -1.29361719e-01f, -1.17722029e-01f, 2.24600554e-01f, -2.85617787e-01f, 1.22744663e-02f,
    -2.17945712e-02f, 1.14076062e-01f, -2.01964980e-01f, 1.00998444e-01f, -7.39595953e-02f, 7.12288669e-02f, -2.75942994e-01f, -2.29636817e-02f,
    1.33505364e-02f, -1.71404158e-01f, -2.16225807e-01f, -1.86915418e-01f, -9.35153532e-02f, -2.41913910e-01f, 0.0f, 2.68391877e-01f,
    -5.70035631e-02f, 1.85381762e-01f, 2.84650274e-01f, -2.51558832e-01f, 9.10016808e-02f, 2.22845452e-01f, 8.05406604e-02f, -4.25843272e-02f,
    -4.13541854e-02f, -2.78460668e-01f, 2.07604508e-02f, 2.96125798e-01f, 2.75224516e-01f, -2.75760463e-01f, 1.23478202e-01f, -1.18941080e-01f,
    2.41793492e-01f, -2.72931153e-01f, 2.61524461e-01f, 2.02485446e-01f, -2.29497371e-01f, -2.64105398e-01f, 2.00824599e-01f, -2.06545397e-01f,
    2.09388918e-02f, 2.49446915e-01f, 4.04688681e-02f, -6.16600191e-02f, -3.29903671e-02f, -2.62129698e-01f, 2.81251393e-01f, -1.13607489e-01f,
    -1.86381905e-01f, -1.28371619e-01f, 2.78623917e-01f, -2.43428368e-01f, 2.20381824e-01f, 1.24706337e-01f, 1.98011507e-01f, 2.85538524e-01f,
    2.05292793e-01f, 2.66029411e-01f, -2.23838846e-01f, 1.77473139e-01f, 2.74054164e-02f, 2.60973570e-02f, 2.39352946e-01f, 2.83082291e-01f,
    1.22902994e-01f, -1.02369663e-02f, -2.61576853e-02f, -6.81951257e-02f, -8.30405823e-02f, -6.50958950e-02f, -2.46148059e-01f, -2.53538349e-01f,
    1.67921906e-01f, -3.23562642e-02f, 2.58410693e-01f, 6.73326052e-02f, -2.78894411e-01f, -2.05485995e-01f, -1.76508124e-01f, 2.85441615e-01f,
    -1.68777464e-01f, 9.45340577e-03f, 2.61706159e-01f, 2.86315638e-01f, -1.58183739e-01f, -2.70529414e-01f, 0.0f, -2.07838900e-01f,
    -2.62002913e-01f, -1.82925455e-01f, 4.11418288e-02f, 2.47469278e-01f, 2.23313302e-02f, 0.0f, 7.55937340e-02f, -1.78879649e-01f,
    0.0f, 1.80350172e-01f, 7.06733451e-02f, 2.18482098e-01f, 2.69305864e-01f, -9.12595345e-02f, -2.45652565e-01f, -1.64442625e-01f,
    -3.72950606e-02f, 2.67416191e-01f, -7.30141066e-02f, 1.62463928e-01f, 2.42860153e-02f, -1.90314738e-01f, 0.0f, -1.07559529e-01f,
    9.19151310e-02f, 1.03712037e-01f, -3.91441519e-02f, -1.62812638e-01f, 1.33144068e-01f, -1.98676175e-01f, 2.62001815e-01f, -1.87257853e-01f,
    -2.35612582e-01f, -1.41137858e-03f, 1.17297589e-02f, 4.91574887e-03f, -3.79995064e-02f, 2.96888936e-01f, -8.23163240e-03f, -1.32320516e-02f,
    -4.69403624e-02f, -2.59904547e-01f, 5.57739787e-02f, -1.63219337e-01f, 8.25653881e-02f, -2.69499923e-01f, 2.88832261e-01f, -1.85969526e-02f,
    2.38053223e-01f, -1.46632961e-02f, -2.63801509e-01f, 1.93328128e-01f, 8.89102378e-02f, 1.69054229e-01f, 0.0f, -4.30980819e-02f,
    8.27620465e-02f, 2.13737402e-01f, 7.86392657e-02f, -9.13958191e-02f, 9.75177566e-02f, 1.03112513e-01f, 2.76352178e-01f, -7.74526071e-02f,
    -4.49509395e-02f, 1.87273777e-01f, 3.45738885e-03f, 1.41943856e-01f, -2.41743213e-02f, -1.70702915e-01f, 1.47122306e-01f, -2.21306898e-01f,
    -1.80849802e-01f, 7.60949897e-02f, 1.48361880e-01f, 2.36812732e-01f, -1.36448102e-01f, -2.33565445e-01f, 2.73627996e-01f, -2.07346147e-01f,
    -1.81399811e-01f, -1.25202328e-01f, 1.76348124e-02f, 2.29695340e-01f, 1.56327614e-01f, 1.24894532e-01f, -1.94891659e-01f, -8.53904211e-02f,
    -1.29570443e-02f, -2.11544428e-01f, -1.35942179e-01f, -1.15000078e-01f, -2.23634281e-01f, 3.01438151e-02f, 1.23016918e-01f, -2.58041021e-01f,
    -1.13261389e-02f, 1.69326717e-01f, 1.48794077e-01f, 1.89043858e-01f, -3.10556201e-02f, 1.92334250e-01f, -1.55548157e-01f, -8.35136631e-02f,
    -1.94186654e-01f, -1.95092763e-02f, -6.47639866e-02f, -1.55443730e-01f, 1.51068426e-01f, -1.11691937e-01f, -1.36317402e-01f, -2.21465801e-01f,
    -3.67069789e-02f, -1.18221223e-01f, -7.84362952e-02f, -1.58401642e-01f, 1.57893294e-01f, 2.58002008e-01f, -1.24088833e-03f, 8.57990540e-02f,
    2.20303366e-01f, 2.99297782e-01f, 6.81098908e-02f, 2.33867680e-01f, 2.45164948e-01f, 1.74870893e-01f, -2.34411654e-02f, -2.51307600e-01f,
    -2.90516667e-01f, -1.36796200e-02f, -3.41127988e-03f, -5.55825673e-02f, 4.09004108e-02f, 3.12976220e-02f, 2.01967825e-01f, -2.34805738e-01f,
    0.0f, -1.64893400e-01f, 1.75802987e-01f, 2.08702120e-01f, 2.96894528e-01f, 2.23747210e-01f, 2.33939404e-01f, -1.11391234e-01f,
    -5.90030196e-02f, -1.39148937e-01f, 6.37796389e-02f, 2.63283213e-01f, -9.32154681e-02f, 3.42010691e-02f, 0.0f, -1.22220222e-01f,
    -1.98120016e-01f, -1.82888682e-01f, -2.65232793e-01f, 2.69576114e-01f, -5.82722349e-02f, 2.00472535e-01f, 1.08797684e-01f, -1.84847303e-01f,
    -1.94722652e-01f, 1.87192921e-01f, -1.41172974e-01f, 2.47971110e-01f, -2.15966757e-01f, 1.06625169e-01f, 1.88684326e-01f, -1.58846167e-01f,
    -1.34275582e-01f, 2.78711332e-01f, -1.41241437e-01f, -4.20257701e-02f, -4.04906441e-02f, -1.48179150e-01f, 1.65474652e-01f, 1.63109606e-01f,
    -7.30091915e-02f, 2.01075475e-01f, -1.72155039e-01f, -2.97416535e-01f, 4.27004172e-02f, 2.96446663e-01f, 0.0f, -2.76813414e-01f,
    -1.75201156e-01f, 1.13487855e-02f, 1.85964442e-01f, -2.46574797e-01f, -6.28592077e-02f, 1.48245480e-01f, -7.70740750e-02f, -1.86698148e-01f,
    -1.82702504e-01f, -5.39707279e-02f, -1.23497551e-02f, 2.17088651e-01f, 8.53514511e-02f, 1.14241173e-01f, 2.89792303e-01f, -5.28939358e-02f,
    -5.79873581e-02f, 2.54008181e-01f, -1.52474648e-01f, 1.37889148e-01f, 1.52743883e-01f, -2.41327202e-01f, -1.90611566e-02f, -1.79662517e-01f,
    -1.88774836e-01f, -2.17031337e-02f, -1.26342175e-01f, 1.77636269e-01f, 2.44562935e-01f, 1.81632363e-01f, -1.40381476e-01f, -1.35519364e-01f,
    -1.47162990e-01f, -2.18977142e-01f, 2.66279021e-01f, -5.87713211e-02f, -1.65186315e-01f, 2.08002630e-01f, -6.04828184e-02f, -2.78929913e-01f,
    -2.02835058e-01f, 8.35502042e-02f, 1.69743165e-01f, -1.73439367e-01f, 2.50437354e-01f, 2.10598272e-01f, 2.09028452e-01f, -1.63403312e-01f,
    -2.69678407e-01f, 2.20454124e-01f, -1.16519863e-01f, 7.13498287e-02f, 1.55980130e-01f, -2.23024045e-01f, 1.68503013e-01f, 2.63106875e-01f,
    1.37024979e-01f, -3.52663509e-02f, 2.26006883e-01f, 1.64745780e-02f, 1.46862557e-01f, 1.92303566e-01f, 1.49611717e-01f, -1.27287074e-01f,
    -2.29293659e-01f, -1.56996882e-01f, 1.72496219e-03f, 3.16615338e-03f, 4.95866096e-02f, -6.29388975e-02f, 1.72134829e-01f, 2.47892250e-01f,
    -1.51964968e-01f, 1.41913931e-01f, 1.06783112e-01f, 1.38542996e-02f, -1.86881860e-01f, 1.77139355e-01f, 2.76375771e-01f, 1.33101799e-01f,
    2.50715998e-01f, 2.90511159e-01f, -8.87695955e-02f, 8.29341318e-02f, -1.56403574e-02f, 2.91977248e-01f, -2.43715306e-01f, -5.25750514e-02f,
    2.25323427e-01f, -1.29569214e-01f, 1.72675710e-01f, -7.03301023e-02f, 2.87987124e-01f, 2.30117902e-01f, -1.19207785e-01f, 1.62115868e-01f,
    -9.78860737e-02f, 6.38177041e-02f, 9.50884610e-02f, 1.97757245e-01f, -2.85329495e-01f, -1.67905265e-01f, 1.27150686e-01f, 3.81139422e-02f,
    -2.63695308e-03f, -2.66874026e-01f, -9.10344699e-02f, 2.19060139e-01f, -2.81464298e-01f, -6.21382588e-02f, 2.67088973e-01f, -2.69471559e-01f,
    1.49823451e-01f, -1.45432430e-01f, 2.19965299e-01f, 1.47640787e-01f, 2.31423103e-01f, -1.70445126e-01f, 1.87756529e-02f, 1.67561966e-01f,
    -1.52580154e-01f, -1.61552217e-01f, -2.83690720e-01f, 2.75109176e-01f, 1.26010128e-01f, 8.13362124e-02f, 0.0f, 1.46396834e-01f,
    1.89677512e-02f, -1.43197073e-02f, -3.02806553e-02f, 8.42635273e-02f, -1.79079015e-01f, 2.32835217e-01f, 0.0f, 1.87051423e-01f,
    -9.02618331e-02f, 4.71655781e-02f, -2.15383620e-01f, 2.83407749e-01f, 2.41735613e-01f, 0.0f, 2.53138504e-01f, -1.00702171e-01f,
    0.0f, -1.98519176e-01f, -1.72936702e-01f, -2.45999165e-01f, -2.27933622e-01f, -2.57217279e-01f, 2.93893842e-01f, -2.55565390e-01f,
    -2.20474751e-01f, 1.96352757e-01f, 4.81441300e-02f, 1.64650323e-01f, 0.0f, 7.85472047e-02f, 2.29305042e-01f, 8.30805167e-02f,
    1.32750557e-02f, 1.27649816e-01f, -3.15643489e-02f, -9.23617063e-02f, -1.94085285e-02f, -1.98171537e-01f, 1.77943038e-01f, -1.43577731e-01f,
    -2.07881072e-01f, -1.52188655e-01f, 2.05242091e-01f, -1.01879223e-01f, 1.11629922e-01f, 2.13845778e-01f, -2.53353200e-01f, 1.59014643e-01f,
    -1.15400720e-01f, -1.70026581e-01f, 1.13340871e-01f, 2.45877974e-01f, -1.22988475e-01f, 4.13002832e-02f, -1.26099532e-01f, 3.25713514e-02f,
    7.31172184e-02f, 6.62012333e-02f, 7.41278218e-02f, -2.18952125e-01f, 1.16124282e-01f, 1.04850214e-01f, 0.0f, 1.09552873e-01f,
    -2.55557668e-01f, -3.18966946e-02f, -5.45789208e-02f, -2.47973110e-01f, -1.66579243e-01f, -3.54224209e-02f, 1.45743786e-01f, -1.57762754e-01f,
    1.97849946e-01f, 2.74789714e-02f, 1.56253011e-01f, -1.64664100e-02f, -4.83464747e-04f, 7.18316336e-02f, 2.56782365e-01f, -4.91245115e-03f,
    1.71945229e-02f, 6.11981781e-02f, 1.42509082e-01f, -2.56889799e-01f, 9.41246311e-03f, -1.10450465e-02f, 2.53010991e-01f, -3.89605174e-03f,
    -1.90076792e-02f, 2.77319993e-01f, -2.96541218e-02f, -1.91469342e-01f, -1.69850326e-01f, -2.42887477e-01f, 0.0f, -2.99659122e-01f,
    -4.08326034e-02f, 1.61545549e-01f, 1.40079866e-01f, -2.80710547e-01f, 4.19897422e-02f, -2.07430125e-01f, 2.64645771e-01f, -1.99581000e-01f,
    7.59835306e-02f, -1.04256983e-01f, 8.49367956e-02f, -5.26448421e-02f, 1.55785831e-01f, -1.61592525e-01f, 2.43475112e-01f, 1.25789588e-04f,
    1.53655889e-01f, 2.09838115e-01f, 2.99297167e-01f, -1.65632601e-01f, -1.27864552e-01f, -1.49740148e-01f, -1.42277201e-01f, 4.94668449e-02f,
    2.96113514e-01f, 2.94166852e-01f, 1.60639388e-02f, 8.34163262e-02f, 2.15982326e-01f, 2.59760075e-01f, 0.0f, -1.77683624e-01f,
    1.71250374e-02f, 1.99702233e-01f, -1.18078754e-01f, -3.61145745e-02f, 2.91372661e-01f, 2.91028018e-01f, 2.43664086e-01f, 1.79069007e-01f,
    -1.38521700e-01f, -1.07489956e-01f, 2.83697047e-02f, 3.64664247e-02f, 3.30169161e-03f, 8.20021679e-02f, -5.50061864e-02f, 1.49504494e-01f,
    -9.98700441e-02f, -1.01593802e-01f, -2.23664423e-01f, -1.86772674e-01f, 2.10312527e-01f, -3.22305969e-02f, -1.63279328e-01f, 1.55604660e-01f,
    3.23886755e-02f, -2.87306393e-01f, -1.10183126e-01f, -1.93799153e-01f, 9.35237166e-02f, -1.34981376e-01f, 0.0f, -2.61031932e-01f,
    -2.67039006e-01f, 4.90363788e-02f, -2.86965927e-01f, 2.09275268e-01f, -2.06761728e-01f, 6.39398011e-02f, -3.31871832e-02f, -3.42890873e-02f,
    -2.56921715e-01f, 1.81651350e-01f, 2.35831491e-01f, -2.93390000e-01f, -1.92837495e-01f, 2.42342513e-01f, 2.96961677e-02f, -2.09976253e-01f,
    -1.78325728e-01f, 9.59917465e-02f, 1.34890093e-01f, 5.96560851e-02f, 2.71889028e-01f, -3.56183780e-03f, -1.19836853e-01f, -1.36602540e-02f,
    -8.42002238e-02f, -1.65350464e-01f, -2.72422050e-01f, -8.86725039e-02f, 1.26845609e-01f, -2.88937318e-01f, -3.64928921e-02f, 8.64056409e-02f,
    6.62424655e-02f, 1.65989062e-01f, 1.86311829e-01f, 1.27023493e-01f, -2.38321382e-01f, -1.49865336e-02f, 6.20435745e-02f, -1.52660377e-01f,
    -2.74468909e-01f, -1.65845807e-01f, -2.70633590e-02f, -5.16418086e-02f, -1.93999811e-01f, 1.94649326e-01f, 2.55412001e-01f, -1.79191009e-01f,
    2.57743749e-01f, -2.89283424e-01f, 2.54977484e-01f, 2.71157274e-01f, -2.92768882e-01f, 1.57811578e-01f, 2.82120944e-01f, 2.43541331e-01f,
    2.82426097e-01f, 3.01941034e-02f, -2.53106316e-01f, 2.09873519e-01f, 6.82969535e-02f, 6.88420465e-02f, -4.96478341e-02f, 4.31051859e-02f,
    -2.07852133e-01f, 1.43862016e-01f, -2.54989616e-01f, 1.37868460e-01f, 2.09387054e-01f, -1.65187935e-02f, 5.89821963e-03f, -1.12671436e-01f,
    2.81675150e-01f, 1.39874685e-01f, -7.86068680e-02f, -1.95115568e-01f, -1.68252245e-01f, -2.16466283e-02f, 2.65541040e-01f, 1.40487807e-01f,
    -1.70853751e-01f, 2.15736680e-01f, -7.30796862e-02f, 2.11033310e-01f, -1.54980241e-01f, 7.11963672e-02f, 2.56002293e-01f, -1.45263595e-01f,
    1.15755954e-01f, 2.92387572e-01f, -2.09641028e-01f, -2.46958626e-01f, 1.04517115e-01f, -9.61584314e-02f, 0.0f, -2.57253314e-01f,
    -1.48166293e-02f, 1.52262408e-01f, -1.28926560e-01f, -9.89718735e-02f, 2.07419640e-01f, 1.20431474e-02f, 2.05639181e-01f, -3.21663047e-02f,
    2.71785097e-01f, 9.04767538e-02f, -2.30460681e-01f, 2.31055793e-01f, -6.44088550e-03f, -2.15016619e-01f, -2.08385920e-01f, 1.12520361e-01f,
    -2.71576496e-01f, -1.28043741e-01f, -2.16127446e-01f, -3.53535422e-02f, -5.13877368e-02f, 1.31258608e-02f, -1.32218203e-01f, -2.80773846e-01f,
};
alignas(4) static const Scalar bx0_k1_f1[] = {
    6.86316639e-02f, -7.57691983e-02f, 9.08009992e-02f, -2.34799818e-01f, -2.91733587e-01f, -1.51023451e-01f, -2.60716062e-02f, -6.35568155e-02f,
    1.86181533e-01f, -7.32974135e-02f, 1.82647078e-02f, 5.61093555e-02f, -2.86901165e-01f, 9.08002611e-03f, -9.31012444e-02f, -4.72319234e-02f,
    -2.39827561e-01f, 1.69692339e-01f, 2.65442550e-01f, -2.86638708e-01f, 6.08236577e-02f, 1.58306440e-01f, -1.29115447e-01f, 1.72533351e-01f,
    7.94130305e-02f, 2.57497579e-01f, 2.88602887e-01f, -2.74592332e-01f, -3.30373434e-02f, 2.81926725e-02f, -2.11954060e-01f, -9.82285017e-02f,
};
alignas(4) static const Scalar Wskip0_k1_f1[] = {
    2.92588469e-01f, -2.90261726e-01f, -2.84952411e-02f, 2.05592773e-01f, -1.05659242e-01f, -1.21208983e-02f, 2.86827447e-01f, -1.50738981e-02f,
    -2.21447213e-01f, -2.68967105e-01f, 2.67249943e-01f, -1.40514352e-01f, 2.43834394e-03f, -2.45578940e-01f, -4.58069277e-02f, 2.58063312e-01f,
    1.44779618e-03f, 2.82681091e-01f, -1.44698618e-01f, 2.72714382e-03f, 2.15718475e-01f, -3.10485873e-02f, -1.32307576e-01f, 2.13285218e-01f,
    -6.60663187e-02f, 1.84339746e-02f, 2.85916240e-01f, -1.88110023e-01f, -1.19159618e-01f, -2.81358240e-01f, -6.48973741e-02f, -1.79889942e-01f,
    1.08020961e-01f, -1.91207125e-01f, 1.04887651e-01f, -1.41914743e-01f, -8.68692995e-02f, -9.06836088e-02f, 1.30051050e-01f, -2.00944421e-02f,
    -8.32206607e-02f, 2.11573631e-01f, 4.31703754e-02f, -1.71701507e-01f, 2.40054767e-01f, -9.44098224e-02f, -2.76612373e-01f, -3.23986562e-03f,
    -2.25637167e-01f, -1.56920134e-01f, 1.48266524e-01f, -2.21548912e-01f, 1.84166535e-01f, 2.62144373e-01f, 6.39192602e-02f, 1.26215515e-01f,
    1.28151966e-01f, 2.95684774e-01f, -9.50770427e-02f, -2.02286069e-01f, 1.15003409e-02f, 1.99498859e-02f, -1.93252507e-01f, 6.78656514e-02f,
    -2.91525160e-01f, 2.56601041e-01f, -1.41255433e-01f, -2.76263875e-01f, -2.35050335e-01f, -1.55850631e-01f, -1.35656299e-01f, -2.80314000e-01f,
    -1.32387113e-01f, -1.84234958e-01f, -7.28274435e-02f, -6.88993576e-02f, -9.65953556e-02f, -1.03245670e-01f, -2.46161233e-01f, -2.84877032e-01f,
    -1.78731420e-01f, 1.53989656e-01f, 2.94485859e-01f, 2.57115705e-01f, 2.53161332e-03f, 1.90943135e-02f, -1.11251059e-01f, 1.64363663e-01f,
    1.58854013e-01f, 2.06563415e-01f, 2.37302746e-01f, -3.93904511e-02f, 1.60125341e-01f, 1.83839237e-01f, -1.14924227e-01f, 2.57545346e-01f,
    -2.43395098e-01f, 2.96561507e-01f, 1.62054431e-01f, -2.44037457e-01f, 9.37377889e-02f, -2.79492353e-01f, 1.62112170e-01f, 1.79533753e-01f,
    6.14461519e-02f, 2.14116235e-01f, -2.41270032e-01f, -1.34445695e-01f, -5.14934870e-02f, -2.74525228e-01f, -3.10703475e-02f, -1.40871926e-01f,
    -6.43589927e-02f, -4.49384208e-02f, 2.27647040e-01f, -1.37795418e-01f, 2.36245877e-01f, -4.44174211e-02f, -1.03315368e-01f, 1.50722960e-03f,
    -4.93540282e-02f, -1.45576612e-01f, 1.60759488e-03f, -2.08918960e-01f, -8.88420342e-02f, 3.94741316e-02f, -5.19550534e-02f, 1.94347417e-01f,
    -1.45966943e-01f, 2.81862947e-01f, 1.70833213e-01f, 2.80555816e-01f, 2.02881933e-01f, -2.14737644e-01f, 1.58760544e-02f, -1.98012887e-01f,
    1.90936412e-01f, 5.04972895e-02f, -1.41930411e-01f, 2.57759383e-01f, -2.30888368e-01f, 3.83174421e-02f, 1.32624333e-01f, -2.64690878e-01f,
    5.87136199e-02f, 1.89540729e-01f, -2.59483611e-01f, 7.34578266e-03f, -1.44865693e-01f, 9.77546709e-02f, -2.28793580e-01f, 2.62230858e-01f,
    2.36837149e-01f, -1.88415348e-01f, -1.06040469e-01f, 5.25809848e-02f, 1.30837402e-01f, -3.44063909e-02f, -2.06225207e-01f, -2.37509104e-01f,
    2.99859202e-01f, -2.67887271e-02f, 2.23519049e-01f, -1.05743972e-02f, 2.53414583e-01f, -2.47344370e-01f, -2.31588485e-01f, 2.57779313e-01f,
    2.68495827e-01f, -1.11169532e-01f, -8.69010678e-02f, -2.85298591e-02f, -5.03029920e-02f, -1.85972870e-01f, 2.39025230e-01f, -1.48015440e-01f,
    1.23163446e-01f, -2.59706593e-01f, -2.76749201e-01f, 9.22382835e-02f, -9.65904855e-02f, 9.32756356e-02f, -2.43587279e-01f, 2.69910828e-01f,
    1.49108680e-01f, 2.25760340e-01f, -2.18117668e-01f, -1.07903419e-01f, -7.89935015e-02f, 2.23035890e-02f, -1.21878909e-01f, -2.63621555e-01f,
    -7.86729716e-02f, -1.47270411e-01f, -6.84472251e-02f, -1.81824274e-01f, -1.42862175e-01f, 7.61714043e-02f, -6.71076993e-02f, -9.27699641e-02f,
    2.03433796e-02f, 1.63116325e-01f, -7.26792262e-02f, 5.25116955e-02f, 2.79721575e-01f, 1.31880685e-02f, 2.45878546e-01f, 1.76203575e-01f,
    -2.64768791e-01f, -4.25406771e-02f, 1.18991045e-01f, 2.92027147e-01f, -2.49742253e-02f, -2.44328728e-01f, 3.72055048e-02f, -2.24061725e-01f,
    1.50911736e-01f, 4.60619848e-03f, 1.34058821e-01f, 2.21617096e-01f, 7.73688103e-02f, 6.74635976e-02f, 1.52742177e-01f, 2.05473001e-01f,
    2.21432272e-01f, -2.78141883e-01f, 3.37141781e-02f, -1.70238414e-01f, 2.16207534e-01f, 8.90386111e-02f, -4.78665126e-02f, -1.87137463e-01f,
    -9.65858244e-02f, 1.22266617e-01f, -1.77384273e-01f, -2.43850233e-01f, 2.32817255e-01f, 1.58526210e-01f, -1.80123042e-01f, -1.24613074e-01f,
    2.83242106e-01f, 1.24910692e-01f, 6.63132025e-02f, -1.15422909e-01f, -1.20524914e-01f, -2.76285829e-01f, 1.37089120e-01f, -2.74094865e-01f,
    -2.97085597e-01f, 1.37697053e-01f, 2.69324254e-01f, 1.53901829e-01f, -1.70158856e-02f, -8.37285026e-03f, -3.83181464e-02f, -1.05213800e-01f,
    1.30285285e-02f, -4.13094257e-02f, 5.89007280e-02f, 2.38872048e-01f, 2.97005650e-01f, -2.52754026e-01f, -6.91899164e-02f, -1.91576283e-01f,
    -8.87277156e-02f, -1.27516189e-01f, -1.95277721e-01f, 1.58445632e-01f, -2.22675430e-03f, 2.51547349e-01f, -2.80444534e-01f, -2.59813192e-01f,
    -5.80358502e-02f, -2.51833608e-01f, -1.42362242e-01f, 2.91617846e-01f, -1.74624236e-01f, -1.81129355e-01f, 4.41844013e-02f, -1.20102552e-03f,
    4.82629783e-02f, -7.39588331e-02f, 1.96057416e-01f, -2.16851669e-01f, -4.29644125e-02f, 1.13857109e-01f, 2.20941864e-01f, -7.82570362e-02f,
    4.06473595e-02f, -2.58516033e-01f, -1.97808547e-01f, -2.58517103e-01f, 1.36728535e-01f, -1.27164019e-01f, 1.34247174e-01f, -2.60161033e-01f,
    2.17528680e-01f, 2.01318119e-01f, -2.46642754e-01f, -2.85746096e-01f, -2.66226712e-01f, 2.12178104e-01f, -1.59177907e-01f, 2.89639907e-02f,
    -4.42534781e-02f, 1.77315316e-01f, -6.66101912e-03f, 3.96504397e-04f, 2.93455164e-01f, -2.09922266e-01f, 1.98422363e-01f, -2.68950153e-01f,
    -1.34107383e-02f, 2.31800894e-01f, 9.91283794e-02f, 1.11128772e-01f, -1.42009631e-01f, -4.88551252e-02f, -8.00513619e-02f, 1.28659261e-02f,
    -2.26632419e-02f, -1.03860989e-01f, -1.16711633e-01f, -1.49488265e-01f, -8.09716519e-02f, -2.10035113e-01f, 2.23262581e-01f, 6.12716351e-02f,
    -2.19728145e-01f, 1.16315601e-01f, 2.08599881e-01f, -1.57478597e-01f, -2.09639643e-01f, -2.94829646e-01f, -2.71649797e-01f, 1.57350809e-01f,
    2.92311799e-01f, -2.73071807e-01f, 1.48842575e-01f, -2.56882700e-01f, 5.52796949e-02f, 1.53645169e-01f, -8.44773616e-02f, -2.93439167e-01f,
    5.71136113e-02f, 2.94746777e-01f, -1.45429546e-01f, -1.86305234e-01f, -2.25644464e-01f, 3.31533719e-02f, 5.78670596e-02f, 1.75362502e-01f,
    1.51843964e-01f, 2.35524897e-01f, 1.83463619e-01f, -1.51639750e-01f, 3.35264429e-02f, -1.21552825e-01f, -1.02128772e-01f, 2.59166622e-01f,
    1.09137543e-01f, 2.84754248e-01f, -4.98524780e-02f, 2.24625440e-02f, -7.73074805e-03f, -2.35627765e-01f, -1.57978803e-01f, 1.65818164e-02f,
    -2.59575417e-01f, 2.58877158e-01f, -2.25693791e-01f, -1.81211552e-01f, 1.59192734e-01f, -2.41839275e-01f, 2.40166860e-01f, 1.35420582e-01f,
    -2.58827486e-01f, 1.15108237e-01f, 7.89771253e-02f, 1.54409660e-01f, 1.96918711e-01f, 1.31010338e-01f, 5.17057772e-02f, -1.06522009e-01f,
    1.18364197e-01f, 2.74182951e-01f, 5.25130683e-02f, 9.86069211e-02f, -3.77231747e-02f, 1.53672486e-01f, 2.98600435e-01f, -2.03766406e-01f,
    -1.78556832e-01f, 2.36626552e-02f, -1.11747616e-02f, 4.29418707e-02f, -2.70555571e-01f, -5.74341262e-02f, 4.97869572e-02f, 5.11148108e-02f,
    9.44003771e-02f, 1.32129617e-01f, 8.49283220e-02f, 1.74145893e-01f, 7.48563808e-02f, 2.25045975e-02f, 6.37178573e-02f, -2.39283980e-01f,
    -1.36106076e-01f, 1.64398684e-02f, 2.23792329e-01f, 1.07430934e-01f, -2.45755153e-01f, 5.53649703e-02f, -1.66957207e-01f, 1.40409936e-01f,
    1.96464512e-01f, 5.60737636e-02f, 5.48175659e-02f, -9.68451341e-02f, -3.22499873e-02f, 2.18465012e-01f, 1.33992199e-01f, 1.18521958e-02f,
    -7.90605683e-02f, -2.69772157e-01f, -2.14195559e-01f, -1.84184886e-01f, -7.59698740e-02f, 2.66486188e-01f, 3.09203692e-03f, -1.59095902e-01f,
    -2.36549918e-01f, -9.70166852e-02f, 1.89438381e-01f, -6.99943240e-02f, 1.63503484e-01f, 1.81622986e-01f, -2.33507538e-01f, 6.51958516e-02f,
    2.75457638e-01f, -5.87171551e-02f, -2.69433547e-01f, 2.53981614e-01f, 2.30199769e-01f, 1.32848683e-02f, 3.13518722e-02f, -1.72955338e-01f,
    1.91670453e-01f, -8.39976965e-04f, -2.79673323e-01f, 1.09808974e-01f, 2.70297762e-01f, 1.97490294e-01f, -1.33681116e-01f, -2.68004949e-01f,
    2.64210848e-01f, 2.62237635e-01f, 1.94491918e-02f, 8.53904470e-02f, -2.24399636e-02f, -4.81407797e-02f, -2.28330938e-01f, -2.41948261e-01f,
    -1.60360712e-01f, 2.01984448e-01f, -2.12500620e-01f, -1.63980809e-01f, 2.91684356e-02f, -1.70921269e-01f, -2.02075989e-01f, 3.79897450e-02f,
    -7.91440374e-02f, 7.56955715e-02f, 2.47323204e-01f, -2.09404121e-01f, 2.48060196e-01f, 2.41493980e-01f, 1.97452550e-01f, 7.87715504e-02f,
    7.20879945e-02f, 8.35275960e-02f, 1.14297331e-01f, -2.90110680e-01f, 2.74855547e-01f, 5.13622569e-02f, 1.68879504e-01f, -7.36308966e-02f,
    -2.92561672e-01f, 5.84079593e-03f, 4.31407159e-03f, -3.78064270e-02f, -9.61697675e-02f, -1.50104347e-01f, 1.65269247e-02f, -7.48331162e-02f,
    2.81959130e-01f, -1.96243615e-01f, -1.08200659e-01f, -1.23623717e-01f, 2.59855057e-02f, -4.31845816e-04f, 8.62442793e-02f, 2.70001062e-01f,
    -1.28867349e-01f, 1.15662942e-01f, -2.84975878e-01f, -1.42566916e-01f, -2.17681632e-02f, -2.81403127e-01f, 7.06016763e-02f, 1.06986365e-01f,
    1.48039029e-01f, 9.94470291e-03f, 6.23667990e-02f, -6.23608492e-02f, -2.75248180e-01f, -2.40028887e-01f, 9.29975545e-02f, 2.97333180e-01f,
    -2.90518057e-01f, 3.45500981e-02f, 1.50605252e-01f, 1.96064897e-01f, 2.71229407e-02f, 7.19495881e-02f, 1.18034967e-01f, 2.15379750e-01f,
    -2.26626278e-01f, 2.55709318e-01f, -2.84389558e-01f, 2.01719851e-01f, -2.53955744e-01f, -1.83223073e-01f, -2.97663512e-01f, -3.28459767e-02f,
    -9.93844640e-02f, -2.00404253e-01f, -2.93459035e-02f, -5.85774701e-02f, 1.60596620e-01f, 2.35878184e-01f, 9.15403511e-02f, -2.25353767e-01f,
    -1.22765523e-01f, 2.47990978e-01f, -2.46759304e-01f, -5.58864964e-02f, 2.65502772e-01f, 2.70398905e-01f, -5.32780938e-02f, 1.00438133e-01f,
    -2.59526410e-02f, 1.52076324e-01f, -2.81051202e-01f, -2.13505711e-01f, 6.85192821e-02f, -1.60468643e-01f, 9.96313796e-02f, -8.92662435e-02f,
    2.31987335e-01f, 1.91555631e-01f, -4.29731996e-03f, 1.63737052e-01f, -1.37317268e-01f, -3.44413391e-03f, -1.81510769e-01f, 2.16531701e-01f,
    1.93840570e-01f, 2.41289801e-01f, 2.26486189e-01f, 2.75757757e-01f, -1.62998261e-01f, 2.59094574e-01f, 4.27279148e-02f, -4.65029496e-02f,
    3.62243376e-02f, -9.44385860e-02f, -1.26868196e-01f, -1.55211397e-01f, -2.50543206e-01f, -2.06106171e-03f, 2.32657005e-01f, 7.80911816e-02f,
    1.25853797e-02f, -4.28442490e-02f, -2.13590242e-02f, -1.74433591e-01f, 1.93761526e-01f, -1.80970222e-01f, 1.29973654e-01f, 1.55991007e-01f,
    4.49214252e-02f, 2.17755825e-01f, -1.25369789e-01f, 2.28970333e-01f, 1.37646276e-01f, 1.79249897e-01f, 9.87478257e-02f, 2.07805810e-01f,
    2.95859318e-01f, -4.79022873e-02f, 1.88349410e-01f, 1.46747856e-01f, -2.82779006e-02f, 2.56169400e-01f, -6.33444423e-02f, 3.92795498e-02f,
    -2.36434586e-01f, -1.64534884e-01f, 2.04417702e-01f, -6.20683663e-02f, -6.35495464e-02f, -1.52411389e-01f, -5.03379942e-03f, 1.83490177e-01f,
    2.37098471e-01f, -2.57931341e-01f, 4.48924387e-02f, -1.96359793e-02f, 6.85691103e-02f, -3.16345879e-02f, -6.08131075e-02f, -1.68715725e-02f,
    4.91994773e-02f, 5.89926619e-04f, -1.67133294e-02f, 1.90701186e-01f, 1.47388795e-01f, -9.51729035e-02f, 1.80346271e-01f, 2.12190401e-01f,
    -2.07904677e-01f, 4.96094770e-02f, -1.28812804e-01f, 1.43503393e-01f, -1.56728802e-01f, 1.02842115e-01f, -1.46925206e-01f, 6.68625806e-03f,
    2.69187881e-01f, -7.12154769e-02f, 2.25443092e-01f, 2.92166749e-01f, 2.24910509e-01f, -2.00480382e-01f, 1.91794932e-01f, -2.80710363e-01f,
    -6.40188698e-02f, 2.22440024e-01f, 1.13251328e-01f, 1.96442564e-02f, -6.72815850e-02f, 1.87378168e-01f, 1.25735042e-01f, -1.89568082e-02f,
    2.35490602e-01f, -1.62031189e-01f, -1.97765095e-01f, 8.56822586e-02f, 2.83196606e-01f, -1.51646056e-01f, -1.50197773e-01f, -2.16300691e-01f,
    2.16338133e-01f, -1.64161476e-01f, 1.90711603e-03f, 2.94523487e-01f, -2.92715459e-01f, 3.38916543e-02f, 7.37342562e-03f, 1.84468426e-01f,
    -8.68310763e-02f, -5.37951847e-02f, -1.99237212e-01f, 1.44489139e-01f, 1.70825346e-01f, -2.18002008e-01f, -6.39257556e-02f, 2.35742997e-01f,
    -2.98375636e-01f, -1.20744558e-01f, 3.30253710e-02f, -9.95436842e-02f, -1.36772886e-01f, -2.39775091e-02f, -1.91086135e-01f, 1.77751446e-02f,
    1.24017553e-01f, 4.51769716e-02f, -2.44134401e-01f, 2.06645168e-01f, -1.95013298e-01f, 1.58887200e-01f, -8.36609335e-02f, 1.69656809e-01f,
    -1.76236258e-01f, -1.88002738e-01f, -1.78449227e-03f, -2.80238391e-01f, -1.64821597e-01f, 1.34407351e-01f, 2.02430087e-01f, -2.51528782e-01f,
    2.29246626e-01f, 1.78510322e-01f, 2.21810577e-01f, 1.19057133e-01f, 1.04491840e-01f, 1.50559400e-02f, 9.16723347e-02f, 2.51465799e-01f,
    -2.39686799e-01f, -1.10541313e-01f, -2.56527016e-01f, 2.66883103e-01f, -3.28407204e-02f, 1.05206682e-01f, 2.04672039e-01f, 2.94600149e-01f,
    -2.02930525e-01f, 1.79707563e-01f, 2.32453739e-01f, -2.70674774e-01f, 1.52454336e-01f, -8.71648073e-02f, 8.91580749e-02f, 8.42891762e-03f,
    -1.44154649e-01f, -2.18867183e-01f, -2.29831660e-01f, -2.38006285e-01f, 8.26740241e-02f, -8.91534892e-02f, -1.70019937e-01f, 1.15131056e-01f,
    1.12109739e-01f, 2.35009754e-02f, 2.60974690e-01f, -6.87514611e-02f, 2.01517783e-01f, -2.54916355e-01f, 1.43898656e-01f, 2.93068448e-01f,
    2.07958930e-01f, 4.77988316e-02f, 7.60596386e-02f, -8.80262703e-02f, 1.07691131e-01f, 1.62237230e-01f, 2.98937089e-01f, -4.52224980e-03f,
    -2.63217561e-01f, 5.75147704e-02f, -2.28585510e-01f, -1.53140974e-01f, -1.02732053e-01f, 1.38617924e-01f, -1.89715126e-01f, -2.00548232e-01f,
    -2.73021455e-01f, 2.23943962e-01f, 1.16103255e-01f, -2.76032121e-01f, -2.83024617e-01f, 3.52045779e-02f, -1.30479359e-01f, 5.80358103e-02f,
    -3.92374946e-02f, 2.53987537e-01f, -1.27314591e-01f, 1.07487221e-01f, -2.67567413e-01f, 2.73516321e-01f, 2.88454481e-01f, 1.43444777e-01f,
    -2.08725171e-02f, -1.68003936e-01f, 1.87509804e-01f, 1.41812458e-01f, -1.66827576e-01f, -2.92708235e-02f, -2.23206373e-02f, 1.95846330e-01f,
    1.10306811e-01f, 8.59005261e-02f, 8.98964535e-02f, -1.37717952e-01f, -7.69732441e-02f, -2.72602629e-01f, 1.72164681e-01f, -4.02010709e-02f,
    -3.70569857e-02f, -1.52786241e-01f, -1.74343631e-01f, 5.26931577e-02f, -1.60468191e-01f, -2.61474689e-01f, 1.60504450e-01f, -7.41183394e-02f,
    -7.18586497e-02f, -4.12090311e-02f, 1.89026894e-01f, -1.07497862e-01f, 1.54821727e-01f, 2.63726904e-01f, 9.65209176e-02f, -4.09913513e-02f,
    1.48673834e-01f, -2.52615781e-02f, -5.13436373e-02f, 1.51698981e-02f, -1.09366599e-01f, -2.37449870e-01f, -5.10887967e-02f, -2.25685871e-01f,
    -5.37351159e-02f, 3.41602327e-02f, 2.58426709e-01f, -2.78266601e-01f, 7.28750439e-02f, -2.53588880e-02f, -2.87843323e-01f, -1.50271094e-01f,
    -2.28908849e-01f, -1.69923513e-01f, -1.35257854e-01f, -5.92161988e-02f, 1.74236361e-02f, -2.99406004e-01f, -2.02878384e-01f, -2.43860169e-01f,
    2.98040396e-02f, -1.02555078e-01f, 2.90386416e-02f, -1.66906019e-01f, -2.85462388e-01f, 2.64820141e-01f, -2.35015127e-01f, -2.23884751e-01f,
    -2.12071904e-01f, 2.88765914e-01f, 7.05961441e-02f, 6.61739710e-02f, 2.92018921e-01f, -2.46936738e-01f, 2.84700536e-01f, -1.77592112e-01f,
    7.38429021e-02f, -4.79498608e-02f, -6.96289119e-02f, 2.58745997e-01f, -2.10463363e-01f, 2.98241407e-01f, -7.25249633e-02f, 8.92649423e-02f,
    2.80744039e-01f, -2.65439370e-01f, 2.53718618e-01f, 4.06868312e-02f, 1.22638127e-01f, -2.10489490e-01f, 2.00324585e-02f, 1.04108229e-01f,
    -2.62516156e-02f, -2.07008893e-01f, -1.53528555e-01f, 2.12635675e-01f, -2.79317404e-01f, 1.25317247e-01f, 2.99634022e-01f, -2.95510202e-01f,
    -2.03372590e-01f, 1.04486581e-01f, -2.64005499e-01f, 5.38739903e-02f, 1.10400062e-01f, 5.28878089e-02f, -8.08891782e-02f, 1.18369378e-01f,
    5.65766568e-02f, -1.75417697e-01f, 3.78813262e-02f, 2.29144330e-01f, 1.00099971e-01f, -1.69250956e-02f, -1.07049538e-01f, -2.48468274e-01f,
    -1.53223720e-01f, -2.93287948e-01f, 2.91975551e-01f, -1.66510649e-01f, 1.88925566e-01f, -1.98813071e-01f, -1.29839310e-01f, -4.90336085e-02f,
    -1.05356602e-01f, 1.79010488e-01f, 2.74616045e-01f, 2.25176690e-01f, -2.07853280e-01f, 1.66013206e-01f, -2.11231852e-01f, 2.48028664e-01f,
    1.07271454e-02f, -9.81713472e-02f, -2.05784702e-01f, -2.92914547e-01f, -1.51231805e-01f, 2.48412038e-01f, 1.78357315e-01f, 2.81876225e-01f,
    -2.39543087e-01f, 5.53072461e-02f, -1.45709716e-01f, 2.57650235e-02f, -1.07727069e-01f, -1.29920670e-01f, 4.43071812e-02f, -1.90009103e-01f,
    -1.85199378e-02f, 9.04873590e-02f, -2.23090756e-01f, 2.58356563e-01f, 3.43481967e-03f, 1.91716783e-01f, 9.23432584e-02f, 1.26000565e-01f,
    1.29678565e-01f, 2.25059938e-01f, 6.81632610e-02f, -1.33069709e-01f, -2.40294214e-01f, 6.37503717e-02f, -2.60188318e-01f, -1.55223929e-01f,
    -2.63575689e-01f, 2.93325534e-02f, -2.03797125e-01f, 6.62443917e-02f, 1.74519079e-01f, 1.93128432e-01f, -1.14273895e-01f, 2.93727196e-02f,
    3.78064561e-02f, -1.62676907e-02f, 9.30683349e-02f, -1.73947726e-01f, 2.87545944e-01f, -2.41152104e-01f, 1.97532685e-01f, 5.64575922e-02f,
    -1.53087152e-01f, 1.47405000e-01f, -2.49311463e-01f, 1.64650701e-01f, 5.39911333e-02f, -2.33549809e-01f, -2.52296662e-01f, 1.50501800e-01f,
    -1.24238456e-01f, 2.33581110e-01f, 1.57243813e-01f, 1.18914147e-01f, -1.32836368e-01f, 1.25366711e-01f, 2.68888611e-01f, -2.45064099e-01f,
    -1.04302415e-01f, -1.59196641e-01f, -6.40499194e-02f, 1.45399593e-01f, -1.54544511e-02f, 4.24383637e-02f, -1.11507067e-01f, -2.15226440e-01f,
    -1.39839811e-01f, 2.15808181e-01f, 6.14501773e-02f, -7.32067961e-02f, 1.73943589e-01f, -2.61325541e-01f, -1.47665347e-01f, -1.61938108e-01f,
    2.91218737e-01f, 1.23659149e-01f, 7.06715618e-02f, -2.97009021e-01f, -1.89413999e-01f, 8.13247758e-02f, -7.21684041e-02f, 2.54568230e-01f,
};
alignas(4) static const Scalar bskip0_k1_f1[] = {
    1.58834531e-01f, -3.15695563e-02f, 1.49708987e-01f, 2.85242594e-01f, -2.34115052e-02f, 8.55155327e-02f, 2.51198769e-01f, -1.50795203e-01f,
    2.31934748e-01f, -2.41473176e-01f, 8.90689024e-02f, 1.69702893e-01f, 6.87637316e-02f, -2.67911751e-03f, 7.04082600e-02f, -2.09001775e-01f,
    -1.70657574e-01f, -1.38060394e-01f, 5.86676044e-02f, -3.48593558e-02f, -1.53314495e-01f, 2.29685599e-01f, -7.56468958e-02f, -3.23809685e-02f,
    -5.41793541e-02f, -1.90834227e-01f, 1.38976209e-01f, -3.09250426e-02f, -2.90245734e-01f, 2.78408221e-01f, 1.89458167e-01f, 1.34135612e-01f,
};
alignas(4) static const Scalar Wout_k1_f1[] = {
    2.21455122e-01f, 2.44084352e-01f, -9.75061762e-02f, 6.65752071e-02f, 6.52846855e-02f, -1.39620199e-01f, -1.66828649e-01f, -2.31655647e-01f,
    9.55885175e-02f, 1.68551395e-01f, 1.56571788e-01f, -1.10234774e-01f, -1.76844090e-01f, -2.78314929e-02f, 2.80880761e-02f, 2.51452277e-01f,
    2.24893893e-01f, 2.49634999e-01f, 2.10157431e-01f, 2.78748723e-01f, -2.07000017e-02f, -2.71515902e-01f, -2.49862781e-01f, -6.58343149e-02f,
    -1.45387745e-01f, -1.98035645e-01f, 2.71922265e-01f, -1.82748247e-01f, 2.75627563e-01f, 1.56503304e-01f, 8.45674033e-02f, 1.05611376e-01f,
};

// === Step 0, f2 (n_input=31) ===
alignas(4) static const Scalar W0_k1_f2[] = {
    -1.01115406e-01f, 8.78562228e-02f, -1.87984729e-01f, 2.62623260e-01f, -1.18923996e-01f, -1.46888093e-01f, 1.26697679e-01f, 9.38692308e-02f,
    -2.92206490e-02f, 7.94677408e-02f, -2.04304157e-01f, 1.03996984e-01f, -1.37633583e-01f, -1.36298414e-01f, -2.02692039e-01f, -1.00573719e-01f,
    -1.01249364e-01f, -2.74925930e-02f, -1.85748297e-01f, -1.84195478e-01f, 2.50431430e-02f, -2.22673557e-01f, 1.13338205e-01f, 2.66368276e-01f,
    -4.39226270e-02f, 2.40663188e-01f, -2.41010045e-01f, -2.74225424e-01f, 1.32821327e-01f, 1.56612944e-01f, 2.05834945e-01f, -2.65909393e-01f,
    1.66144233e-01f, -7.40767603e-02f, -1.17997420e-01f, -1.96185647e-01f, 2.97609453e-01f, -2.61801846e-01f, 1.96204809e-01f, 8.36966613e-02f,
    1.41048267e-01f, 1.27030272e-01f, 2.15060691e-01f, -1.89724758e-01f, -2.99505230e-01f, 5.91170934e-02f, -8.76848164e-02f, -2.25727601e-01f,
    -1.88316748e-01f, -1.00950413e-01f, -2.57859977e-01f, -2.65852079e-01f, 2.49615753e-01f, -1.12738350e-01f, 2.89338418e-01f, 2.78620205e-01f,
    -2.14457231e-01f, 1.28954582e-01f, 6.04829335e-02f, 1.14388244e-01f, -2.42285400e-01f, -1.86863953e-01f, -2.54016803e-01f, 6.24805231e-02f,
    2.91954646e-01f, 1.03190723e-01f, 1.26456921e-01f, 2.90751025e-01f, 1.06806933e-01f, -2.75891056e-01f, 2.20203361e-01f, -8.11930258e-02f,
    -2.97381827e-01f, 4.34050654e-03f, 2.62209001e-01f, -1.45601588e-01f, -5.09209617e-03f, -1.95733867e-01f, -2.65384397e-01f, -2.51673032e-01f,
    1.36206544e-01f, 2.18444682e-01f, -2.14020696e-01f, -1.27008859e-01f, -1.82982319e-01f, -2.83886534e-01f, 3.20588219e-02f, 1.19953302e-01f,
    8.87264885e-02f, -6.71678716e-02f, 3.30061476e-02f, -2.43540416e-01f, -2.07417769e-01f, 2.59076772e-01f, 1.56904649e-01f, 2.53643457e-01f,
    2.50008171e-01f, 8.96355703e-02f, 2.56943189e-01f, -4.99775382e-02f, -2.97830253e-01f, -2.62457330e-01f, -2.34307605e-01f, -2.42787928e-01f,
    -8.89785655e-02f, 1.20762484e-01f, 1.74389284e-01f, 5.41279646e-02f, -2.12138295e-01f, 1.48740961e-01f, -8.71188485e-02f, -2.92203991e-01f,
    -1.31646828e-01f, -1.01639668e-01f, -1.35452679e-01f, 1.87122092e-01f, 1.55955839e-01f, 1.17331218e-01f, -2.16596953e-01f, 1.84700346e-01f,
    1.06305577e-01f, -1.83097388e-01f, 8.88563582e-02f, -9.89301540e-03f, -3.63899629e-02f, -2.32726102e-01f, 1.09825655e-02f, -2.40040915e-01f,
    -2.01447968e-01f, -2.20472211e-01f, 2.72464967e-01f, -1.29081186e-01f, -8.68774058e-02f, -1.06751636e-01f, 2.38950267e-01f, 3.77795468e-02f,
    2.51495939e-01f, -1.20045057e-01f, -2.31099195e-01f, 3.37310716e-02f, -9.26778049e-02f, 1.81144100e-01f, 2.27654045e-01f, -1.64558935e-02f,
    2.82815414e-01f, 3.18078038e-02f, -1.37447764e-01f, -6.61469079e-03f, -2.77613825e-01f, 1.82400696e-01f, -2.39138969e-01f, -1.14750907e-01f,
    3.91899282e-02f, -2.74214925e-01f, -2.52409860e-01f, 1.17669815e-01f, -2.56933744e-01f, -1.37502803e-02f, -9.67826199e-02f, -1.63152355e-01f,
    -1.86732661e-01f, 1.58046776e-01f, 2.70925316e-01f, -2.15892155e-01f, 2.75808732e-01f, 5.68575021e-02f, 8.49962432e-02f, 1.25955827e-01f,
    1.22471334e-01f, 1.91886665e-01f, -9.91880919e-03f, 2.00151525e-02f, -1.05703799e-01f, -2.36845444e-01f, 9.87841146e-02f, -2.79834018e-01f,
    -1.34618969e-01f, -2.43462081e-01f, -1.85563706e-01f, 8.32385477e-02f, 7.70859781e-02f, -4.73670522e-02f, -2.45896814e-01f, -3.99756501e-02f,
    -8.83530769e-02f, 1.32275492e-01f, 4.74159649e-02f, -5.06053960e-03f, -7.81075062e-03f, 2.79778132e-01f, 1.53776533e-01f, -1.81226372e-03f,
    -1.24664323e-02f, -2.84112539e-01f, 2.65505558e-01f, -1.08495617e-01f, -1.46436551e-01f, 2.99645355e-01f, 1.31213803e-01f, -2.71581736e-01f,
    -2.62868714e-01f, -2.84699062e-01f, 5.97713397e-02f, -2.57061300e-01f, 2.60033014e-01f, 2.62143924e-01f, 2.76324400e-02f, 6.99833588e-02f,
    -1.24863359e-01f, -2.61616475e-01f, 1.42476267e-01f, -2.38928407e-01f, -2.48665415e-01f, -1.13266134e-01f, -2.92520604e-01f, -3.95786305e-02f,
    1.24608546e-01f, 1.80809359e-01f, 6.25843823e-02f, 2.08124522e-01f, -5.60986777e-02f, 2.09263251e-01f, 3.88398630e-03f, -1.66178323e-01f,
    2.66487388e-01f, -1.35017476e-01f, -2.84279109e-01f, -1.54395574e-01f, -7.99874632e-02f, -8.91901900e-02f, 1.48005057e-02f, 2.29876129e-01f,
    -1.24597064e-01f, 1.24623648e-02f, -9.59166278e-02f, 1.93063836e-01f, -2.05439092e-01f, -2.37893839e-01f, 1.79715194e-03f, 1.03132551e-01f,
    1.77315121e-01f, 5.37749117e-02f, 1.64309857e-01f, -6.43739649e-02f, -2.80279398e-01f, -2.30340415e-01f, -2.76766439e-01f, -1.02633810e-01f,
    -2.70519524e-03f, -8.62095098e-02f, 3.63596850e-02f, -1.16345109e-02f, 1.06765681e-01f, 1.00177298e-01f, -1.09161512e-01f, -9.22713268e-02f,
    5.10886930e-02f, 5.78594807e-02f, -1.11180052e-01f, -1.01809269e-01f, 1.16427008e-01f, 8.84464937e-02f, -2.18969517e-01f, -3.53748722e-02f,
    2.35623647e-01f, -2.78216594e-01f, 2.13098368e-01f, -2.02093106e-01f, 4.34917948e-03f, -4.53981426e-02f, -2.93922398e-01f, 2.49238162e-01f,
    -2.70448636e-02f, 2.72560966e-01f, -1.27953659e-01f, 2.19765464e-01f, 2.53433744e-01f, 3.40994498e-02f, -1.78393327e-01f, 1.11148459e-01f,
    2.93868399e-02f, 2.66717800e-01f, -3.64367629e-02f, -1.38891811e-01f, -2.17027799e-01f, 1.19180141e-01f, 2.84465771e-01f, -2.82993738e-01f,
    1.44267213e-01f, 2.56158218e-01f, -2.55131079e-01f, -2.33897973e-01f, 1.15174259e-01f, 8.87780255e-02f, -2.58703551e-01f, 2.00653651e-01f,
    1.40543087e-02f, 2.44318424e-01f, 2.26794529e-01f, 1.87504661e-01f, 9.53933775e-03f, -1.48973615e-01f, 3.58530235e-03f, -2.39513173e-01f,
    9.53076891e-02f, -2.19613668e-01f, 6.70377750e-03f, -2.67370815e-01f, -1.20292506e-01f, -1.60751724e-01f, 7.20189256e-02f, 1.72072027e-01f,
    -2.65618227e-01f, 2.10170211e-01f, 2.16460617e-01f, -9.46385554e-02f, 9.54024396e-02f, -5.84321810e-02f, -2.07485471e-01f, 1.71974511e-02f,
    -2.48184195e-01f, 2.27083293e-01f, 2.54573856e-01f, 1.92967882e-01f, 3.75168725e-02f, 3.45591547e-02f, 2.90764426e-01f, -1.51258986e-01f,
    -2.54430980e-01f, 3.71645542e-02f, -1.02728641e-01f, -1.06596736e-01f, -2.95748787e-01f, 5.77436457e-02f, -1.41579779e-01f, -1.87284871e-01f,
    -2.75740841e-01f, -8.13830541e-02f, 2.27381323e-01f, -9.79975154e-02f, 1.07444526e-01f, 1.53928178e-01f, -1.03139514e-01f, 1.92984441e-01f,
    1.15127796e-01f, 3.55453372e-02f, -2.99404522e-01f, -2.78945540e-01f, 2.94519506e-01f, 1.69370354e-01f, 2.62539155e-01f, 2.41381923e-01f,
    -2.87734210e-01f, 1.75108374e-01f, -2.93125536e-02f, 1.73734922e-01f, -2.95970530e-01f, -1.27080419e-01f, 1.50794265e-01f, 1.75812473e-01f,
    7.18287607e-02f, -1.19246286e-01f, -1.13782445e-01f, 2.80058378e-01f, -3.64726925e-02f, -3.17246699e-02f, 3.13996501e-02f, -5.42985979e-02f,
    3.16029388e-02f, -4.05987463e-02f, 1.96028952e-01f, 2.45430612e-01f, 2.59266156e-01f, 3.85777235e-02f, -3.47108655e-02f, 1.23144035e-01f,
    2.02994155e-01f, 3.77893452e-02f, 1.19988613e-01f, 1.49837610e-01f, 1.05836266e-01f, 1.47680133e-01f, -1.74812800e-01f, -9.75271787e-04f,
    5.29611328e-02f, -2.98513241e-01f, 2.13577505e-01f, 6.60147051e-02f, -2.22518201e-01f, 1.89814244e-01f, 1.30234180e-01f, 1.54979726e-01f,
    -6.47745229e-02f, 2.12521504e-01f, -5.15834507e-02f, 4.23054918e-02f, -2.99614618e-01f, 8.69238688e-02f, 1.30905475e-01f, 4.02656193e-02f,
    -2.06470977e-03f, 1.85961884e-01f, 1.08823630e-01f, -1.33155576e-01f, 2.75444003e-01f, 1.24360317e-01f, 2.92763357e-01f, 2.82756790e-01f,
    2.51345834e-01f, 1.53222925e-01f, 6.56576211e-02f, -1.96697602e-01f, 2.60108505e-02f, 1.59225913e-01f, 1.25142952e-02f, 2.20943477e-01f,
    -2.34206460e-01f, -7.14357912e-02f, 3.57865116e-03f, -4.06048225e-02f, -2.34848071e-01f, -2.07883024e-01f, 2.02570376e-01f, -9.36944448e-03f,
    -2.70766544e-01f, -2.90105245e-01f, -1.59147588e-02f, -2.01372764e-01f, 1.23075568e-01f, 1.77194078e-01f, -1.63021975e-01f, 5.53061669e-02f,
    -2.07333214e-01f, -1.17850409e-01f, 2.33277297e-01f, 2.64588549e-02f, 2.31533217e-01f, -1.64851317e-01f, -1.01985394e-01f, -1.74287169e-02f,
    -1.19519549e-02f, 2.98588780e-01f, -2.31332809e-01f, 2.11179021e-01f, 2.18209224e-01f, 3.19191789e-02f, -9.35776990e-02f, 1.15356626e-02f,
    -1.24519377e-01f, 1.79464469e-01f, -1.03250477e-03f, 2.55505307e-01f, 7.36148066e-02f, 8.59159987e-03f, 1.26641612e-01f, 2.35977866e-03f,
    2.42703810e-01f, -1.89332423e-01f, 2.84009210e-01f, 1.87314331e-01f, 2.16440017e-01f, -1.02553006e-02f, 2.02320930e-01f, -1.15935550e-01f,
    1.57168907e-01f, -2.15729905e-01f, -1.15768850e-01f, -3.25604020e-02f, -1.06608169e-01f, -6.77897306e-02f, 1.92062847e-01f, -1.45994465e-01f,
    1.47168703e-01f, -2.55772759e-01f, 1.59443465e-01f, 1.75213946e-01f, -5.89807347e-02f, 1.33486694e-01f, 2.49083042e-01f, 1.80427784e-01f,
    -6.57320938e-02f, -9.47189143e-03f, 1.67614527e-01f, -1.24443246e-01f, 1.82329644e-01f, -1.03157314e-01f, 1.83594349e-01f, -2.47919734e-01f,
    -2.73361622e-01f, 2.98605268e-01f, 2.21674274e-01f, 2.29708502e-01f, 2.70767969e-01f, -3.70102144e-02f, -1.27898667e-01f, -2.21985003e-01f,
    7.25480123e-04f, -1.67971008e-01f, 2.61330514e-01f, -2.97598103e-01f, -2.14081957e-01f, -1.52114488e-01f, -1.80625973e-01f, -1.64532938e-01f,
    9.36285630e-02f, -1.03492753e-01f, 6.90146291e-02f, 2.34154760e-01f, 6.15340593e-02f, 1.16719675e-01f, -8.06980211e-02f, -2.04156919e-01f,
    -1.07649563e-01f, 2.78569589e-01f, 7.30868307e-02f, -1.33493328e-01f, -2.94508397e-02f, 2.01307822e-01f, 1.01066142e-01f, 3.63917044e-02f,
    2.31097726e-01f, 1.03463743e-01f, 8.56378385e-02f, -1.86139118e-01f, -2.36166790e-01f, 2.79085270e-01f, 5.93150221e-02f, -5.05899545e-02f,
    5.34124925e-02f, -2.62912823e-01f, 1.93276364e-01f, -1.70012679e-01f, 1.82727604e-01f, 2.06270660e-02f, -1.34056792e-01f, -2.81874031e-01f,
    1.89500013e-01f, -1.94123915e-01f, -2.68916931e-01f, 1.53526638e-01f, -8.99740666e-02f, -6.63995966e-02f, -1.51759448e-01f, 2.15507087e-01f,
    -1.21602284e-01f, -1.73884458e-01f, -1.14450164e-01f, -1.78110255e-01f, -1.09406868e-01f, -2.50238266e-01f, -2.04881983e-01f, -4.97682700e-02f,
    2.27680113e-01f, -2.65625552e-01f, -1.72395176e-01f, 2.45007405e-01f, 2.34008804e-01f, 1.07670500e-01f, -1.55715868e-01f, -4.81136634e-02f,
    -1.73267403e-01f, -2.22846895e-01f, -7.20009633e-02f, 4.54929630e-02f, -8.40403947e-02f, 6.64947303e-02f, -1.22247159e-01f, -9.24896833e-02f,
    1.74404155e-01f, 2.26988839e-01f, -1.06779551e-01f, 4.29094808e-02f, -1.33102630e-01f, -2.67999215e-01f, 1.42714309e-01f, -1.97397910e-01f,
    -4.45724858e-02f, -7.77270397e-03f, -1.89317049e-01f, -2.43266790e-01f, -9.11921912e-02f, 2.71371545e-01f, 6.90813540e-02f, -7.11538630e-02f,
    -2.76653508e-01f, 6.01639688e-02f, -2.44645415e-01f, 2.55264426e-02f, 1.51170305e-01f, -4.58487910e-02f, -1.20353103e-01f, -2.71569460e-01f,
    -2.85133275e-01f, -4.19840582e-02f, 2.30007162e-01f, -1.53562333e-01f, 4.44333035e-02f, 1.10583492e-01f, -2.63502079e-01f, -2.08139775e-01f,
    -1.01233924e-01f, 1.02055904e-01f, -3.65789327e-02f, 1.40517041e-01f, 2.20558719e-01f, 1.55023366e-01f, 2.95348324e-01f, 1.52616641e-01f,
    2.11307517e-01f, 1.99419815e-01f, 1.38159457e-01f, 1.81081090e-01f, 2.60809937e-01f, -1.48755729e-02f, 8.29722143e-02f, 8.96383294e-03f,
    2.10622192e-01f, -4.11842383e-02f, 1.91836063e-01f, 1.79612745e-01f, 2.77131661e-01f, -1.50647580e-01f, 1.25771706e-01f, 1.54151699e-01f,
    2.61767096e-01f, 2.44141451e-01f, 4.41155170e-02f, 4.74919115e-02f, -1.99625263e-01f, 2.84977621e-01f, -1.46989522e-01f, 1.34841731e-01f,
    1.77477003e-01f, -3.52706972e-02f, -1.73283768e-01f, -1.86623769e-01f, 2.13897601e-01f, 6.45389205e-03f, -2.45917811e-01f, 1.30211684e-01f,
    -1.49897368e-01f, 2.25836850e-01f, -1.14256928e-01f, -1.79837502e-01f, -2.49084934e-01f, 6.91868198e-03f, -2.95574473e-02f, 1.50787287e-01f,
    -2.12384477e-02f, -9.37104186e-02f, -1.43007051e-01f, -1.33111953e-01f, 2.56708741e-01f, -2.00952839e-01f, 2.92905855e-01f, -1.03848327e-01f,
    -2.46965859e-01f, -1.50785772e-01f, -2.64951372e-01f, 1.74017861e-01f, 7.53174752e-03f, -9.78080287e-02f, 9.72297628e-02f, 7.83879156e-02f,
    2.63923254e-01f, 2.76756310e-01f, 1.08410265e-01f, 1.90689556e-01f, 1.75455060e-01f, -5.21788038e-03f, 1.22674973e-01f, -2.53044595e-01f,
    1.54812650e-01f, 2.77099804e-01f, -2.49015148e-01f, 2.01669471e-01f, 2.59788016e-01f, -1.64286666e-01f, 1.48867126e-02f, 2.56714935e-01f,
    2.76135603e-01f, -2.23270569e-01f, -9.05974647e-02f, 1.18886785e-01f, -1.67064900e-01f, -1.05137623e-01f, -2.86025364e-01f, -2.07886991e-01f,
    3.73976967e-02f, 9.18540398e-02f, 8.93470987e-02f, 1.67016282e-01f, -5.08311518e-02f, -1.35905570e-01f, -2.90651580e-01f, -1.76022104e-01f,
    -1.12567313e-01f, -1.93075886e-01f, -2.87913317e-01f, -2.05531435e-01f, 9.96597321e-02f, 7.77512499e-02f, 2.61410184e-01f, 1.78900975e-01f,
    4.06536701e-02f, -2.17466192e-01f, 3.84430914e-02f, -2.63042963e-01f, -4.14690616e-02f, -6.58448226e-02f, -4.33117144e-02f, -1.32104449e-01f,
    1.11498269e-01f, 2.04566680e-01f, 1.61110196e-01f, 7.66512575e-02f, 2.30068796e-02f, -2.81349492e-01f, 1.33760399e-01f, 2.69897637e-02f,
    -1.37555370e-01f, -1.03294777e-01f, 2.61364072e-01f, 7.46173471e-02f, -1.44525392e-02f, 7.25530438e-02f, -5.17546050e-02f, -1.78906361e-02f,
    -1.25814446e-01f, -3.60880196e-02f, 1.11355339e-01f, -2.76034845e-01f, 1.77016444e-01f, -1.30212275e-01f, 1.09535876e-01f, 8.56351888e-02f,
    9.15768295e-02f, 6.48773498e-02f, 2.75461103e-01f, 5.00649762e-03f, 1.39391469e-01f, 1.23269599e-01f, -1.58239454e-01f, -1.30016496e-01f,
    -4.55897411e-02f, -1.33381242e-01f, -7.99541406e-02f, -6.54236316e-02f, 6.23187366e-02f, -1.68065974e-01f, 1.82575120e-01f, -3.74781859e-02f,
    1.23746467e-01f, -2.51134511e-01f, -1.80207635e-02f, -2.83068281e-01f, 1.05545995e-01f, -9.37739538e-02f, 2.69551688e-01f, -1.05525471e-01f,
    3.82835388e-02f, -1.45567455e-01f, 7.20675774e-02f, -1.97745899e-02f, -7.76230431e-02f, -1.77786391e-01f, -2.33087194e-01f, -2.28072520e-01f,
    2.99424011e-01f, -5.26135639e-02f, -2.98842175e-01f, 2.71757274e-01f, -2.88012045e-01f, -4.88483247e-02f, 1.30486552e-01f, 2.48759547e-01f,
    1.27731775e-01f, -2.18245471e-02f, 2.84665223e-01f, -2.76408370e-01f, 2.92135322e-01f, 2.09634931e-01f, 2.57358010e-01f, -1.47136546e-01f,
    -2.14525157e-01f, 9.79891676e-02f, 9.51566279e-03f, 1.39007764e-02f, 2.54771507e-01f, 7.20485440e-02f, -1.13361699e-01f, -5.99600661e-02f,
    -2.19902499e-01f, -1.84611576e-01f, -2.13989958e-01f, 1.86174805e-01f, 1.22924081e-01f, 1.82070106e-02f, -7.53792998e-02f, 1.01096574e-01f,
    1.87743209e-01f, 2.28739929e-01f, 2.82097369e-02f, 1.91931073e-01f, 6.78357205e-03f, -1.52819465e-02f, 2.19259113e-01f, -6.81756382e-02f,
    -6.24523926e-02f, -1.17053193e-01f, 1.12210370e-02f, 2.69100202e-02f, 9.62766872e-02f, -4.16986139e-02f, -1.69297625e-01f, 2.20105237e-01f,
    -9.23994797e-02f, 2.53766052e-01f, -1.75588000e-01f, 3.60344857e-02f, 2.19690561e-02f, 1.97188709e-01f, -2.16689168e-01f, 2.45962304e-01f,
    1.88569033e-02f, 5.16656303e-02f, 6.09977598e-03f, -2.78385056e-01f, -1.74560292e-03f, -1.41870202e-01f, -9.43870918e-02f, 8.94609595e-02f,
    -1.38172232e-03f, -2.44069072e-01f, -2.56175235e-01f, -1.88605383e-01f, -1.85468912e-01f, 6.49804542e-02f, -1.93311322e-01f, 2.29031654e-01f,
    -1.74143604e-01f, -2.45321133e-01f, 2.25447610e-01f, -1.22803454e-01f, -4.47464221e-02f, 2.75415830e-01f, 2.66621531e-01f, 1.28950134e-01f,
    -2.58636629e-01f, 5.60040752e-02f, 2.93446761e-01f, 2.68149737e-01f, -2.36398504e-01f, -6.24196181e-02f, -1.10677952e-01f, -2.22163136e-01f,
    1.16878987e-01f, -1.35690981e-01f, -9.30805181e-02f, -2.45784674e-01f, -1.21946473e-03f, -2.05099282e-01f, -4.07457459e-02f, -2.13994667e-01f,
    2.72309934e-01f, -2.13010480e-01f, 1.31322923e-02f, -1.81812105e-01f, -2.54182918e-01f, -1.78614829e-01f, -2.67135536e-01f, -2.16361570e-01f,
    -3.90950534e-03f, 9.10893126e-02f, -2.47596111e-01f, -3.53888257e-02f, 4.87482137e-02f, -1.59464594e-01f, -7.67529531e-02f, -2.56899078e-01f,
    -1.67921352e-01f, -1.99482444e-02f, 2.94265307e-01f, 2.97759038e-01f, 2.87773009e-01f, -4.61481682e-02f, -2.51591773e-01f, -1.05855938e-01f,
    -1.57371375e-01f, -2.91524055e-01f, -2.42859834e-01f, -2.80848390e-02f, -9.62025217e-02f, -1.91787767e-01f, 1.29659982e-01f, -8.57306425e-02f,
    2.11120713e-01f, -1.55413704e-01f, 2.30360941e-02f, -1.89516470e-01f, -2.81963017e-03f, -2.08520095e-01f, -2.03052825e-01f, 6.73340262e-02f,
    -1.41728375e-01f, -1.96579664e-01f, 2.57860950e-01f, -2.74198050e-01f, 3.90888676e-02f, 2.89583051e-02f, -1.49634675e-01f, -2.83369529e-02f,
    -2.47357330e-01f, 1.32762088e-01f, -1.66981711e-01f, -1.83968784e-01f, -1.11072913e-01f, 2.41421952e-01f, 1.77879989e-01f, 2.68135375e-01f,
    9.11774076e-02f, 9.77529066e-02f, -1.19814003e-02f, 2.43111794e-01f, 6.52628956e-03f, -8.69639575e-02f, 8.42250060e-02f, 2.76836960e-02f,
    -2.25588111e-01f, -6.43647517e-02f, -1.12004753e-01f, 2.08100265e-01f, -7.26944658e-02f, 1.92933140e-01f, -3.45662437e-02f, 1.52100338e-01f,
    -2.18830843e-01f, 2.54790132e-01f, -1.16640655e-02f, -1.44121053e-01f, -1.55106236e-01f, -1.40953627e-01f, -7.99654962e-02f, 1.30511720e-01f,
    2.69761826e-01f, 1.01422458e-01f, 2.82997626e-02f, -3.08413152e-02f, 1.96916680e-01f, 2.09794321e-01f, -1.24177395e-01f, 2.72052149e-01f,
    -6.29307821e-02f, 1.80046842e-01f, 2.80091927e-01f, 1.22194861e-01f, -2.03069564e-01f, 5.16821731e-02f, -2.28733726e-01f, 1.73485224e-01f,
    -1.31210896e-01f, 1.17128894e-01f, 2.46053804e-01f, -1.91394090e-01f, -6.42852968e-02f, 8.82712728e-02f, -4.82048443e-02f, -1.95108635e-01f,
    -2.82557031e-01f, -5.60411138e-02f, 8.95254159e-02f, 4.43905249e-02f, -2.06255256e-01f, -2.95839337e-02f, -7.83173723e-02f, -1.35478559e-01f,
    1.37562746e-01f, -1.14208782e-01f, 2.40851714e-02f, 2.53934121e-01f, 2.35655894e-02f, 7.02137461e-02f, -2.56052408e-01f, -1.93119514e-01f,
    -2.39429280e-01f, 1.58887769e-01f, 2.01552649e-01f, -1.88126824e-01f, -1.68436949e-01f, -1.06075626e-01f, 5.46465702e-02f, 7.30777163e-02f,
};
alignas(4) static const Scalar b0_k1_f2[] = {
    1.12052375e-01f, 2.43115654e-01f, -1.22975916e-01f, 9.52553935e-02f, 3.58337075e-02f, -1.16497656e-01f, 2.44449112e-01f, -2.42709953e-01f,
    1.27200616e-01f, 1.36724228e-01f, 2.49195917e-01f, 1.11483554e-02f, -1.07026597e-01f, 1.96644402e-01f, 1.62486169e-01f, 1.89368652e-04f,
    1.60714425e-01f, -1.39274639e-01f, 5.37037982e-02f, 2.19110073e-01f, -1.09209297e-01f, -9.87001054e-03f, 2.70626913e-01f, 1.78927105e-01f,
    2.32223412e-01f, -6.88517635e-02f, 2.97903156e-01f, -2.08460637e-01f, 1.12623499e-02f, -1.24359706e-02f, 1.79059314e-01f, 2.45170664e-01f,
};
alignas(4) static const Scalar Wx0_k1_f2[] = {
    1.38683626e-01f, 7.60897417e-02f, -4.35424855e-02f, 6.19555025e-03f, 5.58018793e-03f, -2.87778916e-01f, 1.82748290e-03f, 2.13582480e-01f,
    1.25564407e-01f, 1.77425173e-01f, -6.57090061e-02f, 1.73839421e-02f, -2.79909859e-01f, -7.02012347e-02f, -1.53503731e-02f, -1.46874660e-01f,
    -2.81255413e-01f, 1.14244865e-01f, -3.89473495e-02f, -5.05930841e-02f, -1.50007948e-01f, 2.26982394e-02f, -3.71839312e-02f, -1.56093162e-02f,
    4.85228091e-02f, -2.96205212e-01f, 2.44617542e-01f, -2.57347562e-01f, -2.94451516e-02f, -1.75576275e-01f, 1.42694216e-02f, -1.31861935e-01f,
    2.16003899e-01f, -6.21840996e-02f, 8.32533335e-02f, -1.50672163e-01f, -2.88356310e-01f, -5.75072786e-02f, 2.18918937e-02f, -2.42717092e-02f,
    2.77208618e-01f, 1.24103504e-01f, 2.97401880e-01f, -1.22963946e-01f, 1.73431968e-01f, 3.33350805e-02f, 6.70562127e-02f, 2.91511920e-01f,
    9.23923199e-02f, 2.39290135e-01f, 1.35450141e-01f, -2.23568327e-01f, 1.19654226e-01f, -9.41064679e-03f, 2.51278796e-01f, 1.84100668e-01f,
    -2.37519187e-01f, -2.19650614e-01f, -2.58233399e-01f, -4.05307515e-03f, -2.51536944e-01f, 1.34207002e-01f, 3.14151489e-02f, 2.01531011e-01f,
    -1.32122527e-01f, 1.14844705e-02f, -2.29512188e-01f, 2.30766002e-01f, -1.94997023e-01f, -2.38582649e-01f, -1.76969641e-01f, 1.83738893e-01f,
    -2.36511283e-01f, 6.86564969e-02f, 1.47708780e-01f, 1.50648696e-01f, -1.85963468e-01f, -2.63025601e-01f, -3.07161697e-02f, -1.78508793e-01f,
    1.19562485e-01f, -8.59843202e-02f, -3.03876354e-02f, -2.31909040e-01f, 4.05301719e-02f, -1.88685486e-01f, 1.07391397e-01f, -2.57298706e-01f,
    2.85536755e-01f, 1.10716187e-01f, -1.90962259e-01f, -2.91543213e-01f, -9.93222647e-02f, -2.08312042e-01f, -1.68953200e-01f, 2.23650155e-01f,
    6.19227960e-02f, -1.94125408e-01f, 3.39956404e-02f, -1.46531608e-01f, 2.85720519e-01f, -2.80345662e-01f, 1.39391053e-01f, 1.63798216e-01f,
    -2.59702342e-01f, -1.96878381e-01f, -6.94160045e-02f, 2.20892896e-01f, 2.21999631e-02f, 9.31841100e-02f, 1.69807701e-01f, 1.96873673e-01f,
    -1.42292741e-02f, 5.27588326e-03f, 1.30803514e-01f, -1.41994585e-01f, 2.12693842e-01f, -2.87527905e-01f, -1.82537039e-01f, 1.80119966e-01f,
    -9.58450729e-02f, -2.10100300e-01f, -1.87947147e-01f, 1.84538412e-02f, 2.07708918e-01f, -2.57609571e-01f, -2.81711455e-01f, -2.08991185e-02f,
    2.73712449e-01f, -1.32594118e-01f, 2.75502323e-01f, 2.32608706e-01f, -1.30118954e-01f, 1.90168839e-01f, 0.0f, 1.11520382e-01f,
    7.09343334e-03f, -4.62503142e-02f, 1.89301654e-01f, 1.75847660e-01f, 1.54161802e-01f, 2.98953571e-01f, -1.28925234e-02f, 1.84153787e-01f,
    2.17487020e-01f, -1.73038451e-01f, -2.74760135e-01f, -5.71509587e-02f, 2.14042011e-01f, -1.26538031e-01f, 1.20006092e-01f, -2.95591117e-01f,
    -8.67813406e-02f, 6.93100169e-02f, -2.22145686e-01f, 2.37964147e-01f, -2.06235614e-01f, 2.45876127e-01f, -1.70166415e-01f, 2.96567204e-01f,
    6.28492280e-02f, -2.49393063e-01f, -2.60833659e-01f, -2.55046982e-01f, 5.39356484e-02f, 1.85747521e-01f, -5.82223549e-02f, -3.30985444e-02f,
    5.35726222e-02f, 1.98243629e-02f, 1.12837040e-01f, -1.69285679e-02f, 1.28316411e-01f, 2.98386446e-01f, -8.98212947e-02f, -2.92670722e-01f,
    -2.24624973e-01f, 3.21085110e-02f, -9.34453277e-02f, 2.63989556e-01f, 7.64676541e-02f, 1.22131116e-02f, 0.0f, 1.78823701e-01f,
    -1.44846077e-01f, 1.91843124e-01f, -2.98163337e-01f, 7.18064173e-02f, 2.60854291e-01f, 1.72715971e-01f, 2.12180515e-01f, -6.18271829e-02f,
    1.94543368e-01f, 3.04989990e-02f, 7.11241419e-02f, -2.64650796e-01f, -1.79068982e-01f, 3.05786493e-02f, -2.64719365e-01f, 1.44868084e-01f,
    2.04034205e-01f, 2.52217417e-01f, -2.38938924e-01f, 2.63832149e-01f, -2.59427995e-01f, -1.55662704e-02f, 2.04150612e-01f, -2.57813317e-01f,
    -2.89061356e-01f, -2.85031369e-01f, 6.76214366e-03f, 1.86958047e-01f, -2.23543997e-01f, -2.25233848e-01f, 4.11281130e-02f, -1.59422640e-01f,
    1.38128241e-01f, 2.69781233e-01f, 1.59620044e-01f, 2.26305220e-01f, 1.17516345e-02f, 1.99391583e-01f, -1.90258090e-01f, -2.58991266e-01f,
    9.35718661e-02f, -2.68828498e-01f, 2.35488851e-01f, 1.14932488e-01f, 2.71320435e-01f, -1.11668006e-01f, -8.30501448e-03f, 1.45014219e-01f,
    -1.54332609e-01f, 2.51092921e-02f, 9.56803650e-02f, 2.87285193e-01f, 1.46821977e-01f, -2.29121490e-01f, -1.47999292e-02f, 5.32624698e-02f,
    -2.12026114e-01f, -4.08203658e-02f, -1.29596510e-01f, -2.28703475e-01f, 7.22516008e-03f, -2.00620151e-01f, 5.43224452e-02f, -1.98181841e-01f,
    1.34156954e-01f, -1.82855026e-01f, 2.37771060e-01f, -2.84274386e-01f, 1.31984322e-02f, -1.07937140e-01f, -1.64954085e-01f, -1.70383325e-02f,
    2.05211722e-01f, 2.49166323e-01f, -1.18050829e-01f, -2.07453827e-01f, 1.32084269e-01f, 4.91992353e-02f, -1.79390311e-01f, 1.56177473e-01f,
    1.13582611e-02f, 9.20371197e-02f, -8.43965796e-02f, -3.65414632e-02f, -1.91794741e-01f, 1.53909521e-01f, -2.05793206e-01f, 1.66981557e-01f,
    1.78804713e-01f, 1.47960578e-01f, -2.88346327e-01f, -1.36120072e-01f, -1.89973543e-02f, 5.73266272e-02f, 2.51533260e-01f, -7.46364167e-02f,
    2.25013991e-01f, -2.01942427e-01f, -7.72317075e-02f, -2.68630794e-01f, 1.45493575e-01f, 0.0f, -2.09608346e-01f, -1.45787991e-01f,
    1.65139951e-01f, 0.0f, 2.08300305e-02f, -2.91616368e-01f, 0.0f, 0.0f, -2.98658877e-01f, 6.39637904e-03f,
    0.0f, 0.0f, -1.17026692e-01f, -1.91813132e-01f, 6.81563626e-02f, -1.62938117e-01f, 5.53242898e-02f, -7.24404296e-02f,
    -1.87952269e-01f, -2.17137157e-01f, -1.57883638e-01f, 0.0f, -2.82100735e-01f, 0.0f, -1.15123823e-01f, 0.0f,
    2.41172814e-01f, 1.98817276e-01f, -7.67977460e-02f, 4.55001711e-02f, 4.04163354e-02f, 1.97242524e-01f, -1.58225939e-01f, -1.22167507e-01f,
    -1.18928740e-01f, -2.75478006e-01f, -1.11187282e-01f, 2.26748266e-01f, 2.47192589e-01f, -2.34218793e-01f, -2.51648750e-02f, -7.11906590e-02f,
    -6.38448203e-03f, 3.28317144e-02f, -2.87844744e-01f, 2.05345349e-01f, 2.84198444e-01f, 9.20428872e-02f, 9.62713431e-02f, 1.67879147e-02f,
    -9.94359530e-02f, -2.10613305e-01f, 5.04380056e-02f, -2.73035158e-01f, 1.94701541e-01f, -4.74529803e-02f, -5.11474655e-02f, -1.03697485e-01f,
    2.81612333e-01f, -1.95049828e-01f, -2.09215307e-01f, -2.00681099e-01f, 9.51164897e-02f, 2.95137191e-01f, -1.58714898e-01f, 2.43370438e-01f,
    -1.32830064e-01f, 8.87399521e-02f, -2.75700629e-01f, -2.60761525e-03f, 9.27419798e-02f, 2.17918663e-02f, -1.57298769e-01f, 1.97098169e-01f,
    2.82081907e-01f, -2.44823426e-02f, 8.15515591e-02f, 1.74247961e-01f, -1.55106564e-01f, 2.18670229e-01f, -1.31879457e-01f, 1.65498482e-01f,
    -2.32740461e-01f, -1.26967978e-01f, 2.01719604e-02f, 1.49532574e-02f, 2.10258711e-01f, 2.97676355e-01f, -2.35673492e-01f, -1.37167120e-01f,
    -8.54410739e-02f, -1.26489553e-02f, -3.65415411e-03f, 2.13717038e-01f, 1.62335582e-01f, -2.88689053e-01f, -2.69869437e-02f, 7.08443029e-02f,
    -2.37626477e-02f, -2.21612846e-01f, -6.15155498e-02f, -5.30065829e-02f, -1.87370447e-01f, 1.53784269e-01f, -1.07159592e-01f, 5.33923743e-02f,
    9.43810858e-03f, 2.26456248e-01f, -2.26791041e-01f, -2.31442195e-01f, -1.19808199e-01f, -4.12710191e-02f, -1.20874651e-01f, 1.57912249e-01f,
    -1.52840494e-01f, -2.49135154e-01f, -5.17201141e-02f, 1.64027573e-01f, 2.10337166e-01f, 1.40006909e-01f, 3.47320071e-02f, 1.34515021e-01f,
    1.08833721e-01f, -1.59380021e-01f, 3.04553353e-02f, 1.62365600e-01f, -1.09727603e-01f, 9.23838880e-02f, -1.11117435e-02f, 1.89531057e-03f,
    -2.45966977e-01f, 9.97302992e-02f, 2.19412221e-01f, -2.15141227e-01f, -8.03366027e-02f, -2.70799527e-01f, -2.82220868e-01f, 2.93795098e-01f,
    -3.91709502e-03f, -8.66885888e-02f, -1.35073754e-01f, 2.88007587e-01f, -1.48649529e-01f, 1.35425037e-01f, -1.29745143e-01f, -2.57706297e-01f,
    1.09965969e-01f, -2.99021491e-01f, 1.05449107e-01f, -1.49774041e-01f, 1.47662539e-01f, 1.61850100e-01f, 1.34464343e-01f, -2.85309935e-01f,
    1.22241972e-01f, 2.94087368e-01f, -1.54424779e-01f, -1.35456857e-01f, 1.88115930e-01f, -2.03761917e-01f, 9.63502053e-02f, 1.53015827e-01f,
    -2.77703603e-01f, 3.22572566e-02f, 4.55263551e-02f, -1.17934262e-01f, 2.25806802e-01f, -2.02350168e-01f, -8.14831743e-02f, 2.09201212e-01f,
    -1.85614346e-01f, 1.92824482e-01f, -2.52558494e-01f, -6.46255969e-03f, -2.54801603e-01f, 1.06742151e-01f, 1.74360893e-01f, 2.09915129e-01f,
    2.88757350e-01f, 1.03209433e-01f, 1.61437148e-01f, 3.45496699e-03f, 2.47642141e-01f, 8.62550293e-02f, 2.30130844e-01f, -1.58728790e-01f,
    -1.95733157e-03f, 1.37891353e-01f, -1.78366947e-01f, -1.73196124e-01f, 2.86825644e-01f, -3.92337836e-02f, -1.90910728e-01f, -1.01121671e-01f,
    -6.15743110e-02f, 7.38511545e-02f, 2.53808795e-01f, 2.91954046e-01f, 9.10192553e-02f, 1.19953416e-01f, -1.06902498e-01f, 2.14295157e-01f,
    -1.69320999e-01f, -2.36171610e-01f, 2.83953594e-01f, 2.18483206e-01f, -1.17812919e-01f, 1.05102430e-01f, -1.97889856e-02f, -1.06123076e-01f,
    -1.27935474e-01f, -2.18383533e-01f, 2.95908494e-02f, -3.20419859e-02f, 7.31185218e-03f, -1.70785700e-01f, 2.63166402e-01f, 8.31547178e-02f,
    2.39760394e-01f, -2.34437300e-01f, 7.37105795e-02f, 2.09677091e-01f, -1.01447532e-01f, -1.82914099e-01f, -1.40987217e-01f, -1.36239764e-01f,
    -3.16806210e-02f, 0.0f, -1.04421838e-01f, -1.37235556e-01f, 8.91073790e-02f, -2.68180577e-01f, -9.57817331e-02f, 1.13851180e-01f,
    -1.94490150e-01f, -1.67443283e-01f, 0.0f, -1.79600025e-01f, -2.99444336e-01f, -1.57393489e-02f, -2.76624726e-01f, -1.36236113e-01f,
    2.96882055e-01f, 0.0f, 2.51037727e-01f, -1.70954515e-01f, -1.13998541e-01f, -2.17772506e-02f, 2.06648128e-01f, 1.81587565e-01f,
    0.0f, -2.24255138e-01f, -2.25330691e-01f, -4.99606477e-02f, 2.22057234e-01f, 0.0f, 0.0f, 2.29250999e-01f,
    -2.35580490e-01f, 0.0f, 0.0f, 4.45783728e-02f, -2.06594882e-01f, 1.11677586e-01f, 2.49859949e-01f, -2.71384245e-02f,
    -2.50150335e-01f, 4.75525175e-02f, -5.48899979e-02f, 1.86539251e-01f, -9.57933216e-02f, 2.24938320e-01f, -1.35779755e-01f, -2.05489418e-01f,
    -1.16111774e-01f, -2.79050525e-01f, -1.31252420e-01f, 9.60705803e-02f, -2.14630213e-01f, -2.33181016e-01f, 0.0f, -2.20568825e-01f,
    0.0f, -2.53468995e-01f, 2.24781247e-01f, 2.66469069e-01f, -2.72063309e-01f, 1.56043069e-01f, 1.42291048e-01f, 2.98145655e-01f,
    -9.12776030e-02f, -1.28694605e-01f, -2.81507275e-02f, 2.13945106e-01f, 1.37156186e-01f, -1.70257116e-02f, -1.53262294e-01f, 1.36209445e-01f,
    2.12716121e-01f, -6.00292614e-02f, 1.01151267e-01f, -5.98727873e-02f, -1.29039371e-02f, 1.49462280e-02f, 1.65435488e-01f, 2.86503590e-01f,
    -3.33803024e-02f, -9.46109963e-02f, -7.58453961e-02f, -2.19666558e-01f, -1.21836757e-01f, -2.48131552e-01f, -4.32634421e-02f, -1.99585638e-01f,
    -9.21559524e-02f, 0.0f, 1.76146650e-01f, -1.52443410e-01f, 6.71367728e-02f, 2.40708852e-01f, 4.01575122e-02f, -1.83724432e-01f,
    -9.31402836e-02f, 5.42215243e-02f, 3.96668386e-03f, -2.10828098e-01f, -3.19221932e-02f, 2.58400169e-02f, 0.0f, -1.39600371e-01f,
    6.74673092e-02f, -2.57903940e-01f, -9.80357799e-02f, 1.82566100e-01f, -1.44429119e-01f, 6.31061100e-02f, -5.39821718e-02f, -1.10123915e-01f,
    2.49679013e-01f, -9.40429692e-02f, -1.57994459e-01f, 2.45580789e-01f, 1.47566614e-01f, 1.09079828e-01f, -2.70279035e-01f, -2.21277024e-01f,
    8.30039783e-02f, -1.74340298e-01f, -1.64617209e-01f, 1.67483109e-01f, -1.28445031e-01f, -2.57047619e-01f, -2.78140832e-01f, -3.40932077e-02f,
    7.02771466e-02f, 2.21331140e-01f, -2.33517363e-01f, -1.81996304e-01f, 1.78803665e-02f, -8.15349827e-02f, -1.04775293e-02f, 2.54474789e-01f,
    2.69349923e-02f, -5.09276336e-02f, 2.93663944e-01f, -2.60870598e-01f, 2.59268069e-01f, 9.97105239e-04f, 2.25380266e-03f, 2.53178601e-01f,
    4.39438776e-03f, -3.69557457e-02f, -1.36506845e-01f, 9.52900601e-02f, 4.17870546e-02f, -1.71392738e-01f, 1.25647749e-01f, 8.64521144e-02f,
    -6.15996695e-02f, -2.97359447e-01f, -3.20513099e-02f, -2.96365130e-01f, -2.55000906e-01f, -4.16340585e-02f, -2.50848069e-01f, -1.34600740e-01f,
    9.32948211e-02f, -1.14830794e-01f, 2.98589156e-01f, 2.49781220e-01f, 5.11859428e-02f, 2.80168283e-01f, 2.20810377e-01f, -1.08660889e-01f,
    1.49757748e-01f, -2.17900930e-01f, 0.0f, 1.10730855e-01f, -5.35090410e-03f, -2.89904436e-01f, -1.35462107e-01f, 2.73229330e-01f,
    -1.10501109e-01f, -1.91127327e-01f, -1.87481132e-01f, -1.24720412e-02f, 2.05589544e-01f, 1.54801059e-01f, -3.78887955e-02f, -1.74763870e-01f,
    -2.72361060e-01f, -2.24218083e-02f, 1.88865209e-01f, 1.37809196e-01f, -5.48395394e-02f, 5.68216032e-02f, -3.82520874e-02f, 4.74096659e-02f,
    1.05031466e-02f, 1.08579960e-01f, 4.62530612e-03f, 2.64366599e-01f, -4.31830911e-02f, -2.90450218e-01f, -1.58175879e-01f, 3.64114864e-04f,
    2.43431111e-02f, 3.14308736e-02f, 1.28731259e-01f, -1.35211114e-01f, 9.89422074e-02f, 1.22419364e-01f, -5.32315484e-02f, -5.86985405e-02f,
    -1.92645129e-01f, -5.16075742e-02f, 1.72089775e-01f, 2.45383803e-01f, 5.61679148e-02f, -1.20377794e-01f, 1.09373831e-01f, 1.44087725e-01f,
    -1.00672333e-01f, 1.95928717e-01f, -2.55782501e-01f, -2.93547769e-01f, -2.26217536e-01f, -2.06394991e-01f, 2.27357420e-01f, -4.50109787e-02f,
    -1.35040985e-01f, -4.25549304e-02f, -6.30954644e-02f, -1.19122999e-01f, -2.17260251e-01f, 9.35492772e-02f, -2.18037358e-01f, 1.65254672e-01f,
    -1.78987192e-01f, 1.38822784e-01f, 1.83351663e-01f, -2.24804394e-01f, -2.47952539e-01f, 2.69743662e-01f, -2.21719159e-02f, 7.81412970e-02f,
    -2.86043736e-01f, -1.32773892e-01f, 3.23859274e-03f, 2.31730988e-01f, -1.37136349e-01f, 1.65114792e-01f, 9.73277570e-02f, -2.30837539e-01f,
    -1.23974896e-01f, -1.57281578e-01f, -3.44834475e-02f, 8.12005458e-02f, -3.99481467e-02f, -1.53278055e-01f, 1.17527261e-01f, 5.06826568e-02f,
    1.15883444e-02f, 3.26517585e-02f, -1.66859612e-01f, 1.08258637e-01f, -6.74996787e-02f, -8.19193082e-02f, -2.10159475e-01f, 5.81024007e-02f,
    6.15986463e-02f, -9.58196138e-02f, 2.15910034e-01f, 2.07274739e-01f, -2.34567416e-01f, 1.17023033e-01f, -6.36991463e-02f, 2.99828911e-01f,
    -1.64985822e-01f, -1.31685477e-01f, -3.47362233e-02f, -1.38770911e-01f, 1.15196020e-01f, -1.14551327e-02f, -1.67472699e-01f, 3.82444169e-03f,
    2.33272660e-01f, 1.75437388e-01f, -7.02645344e-04f, -1.26904438e-01f, -1.92068121e-01f, 2.27029726e-01f, 1.26100164e-01f, 4.32979819e-02f,
    2.27660788e-01f, -2.26985828e-01f, 1.09493572e-01f, -1.69972613e-01f, -2.27653535e-01f, -2.06348940e-02f, -6.75642421e-02f, 2.64704166e-01f,
    -1.05612272e-01f, 1.88941355e-01f, 1.49296200e-01f, 1.00754322e-01f, 2.52240284e-01f, -5.52452434e-02f, -6.61972884e-02f, -2.03431546e-01f,
    -1.34542755e-01f, 2.27865874e-01f, -1.53707203e-02f, -9.51880067e-02f, -1.70332767e-01f, -9.02384985e-03f, 1.29999222e-01f, -1.27984785e-01f,
    1.54629912e-01f, 7.78726648e-02f, 1.72537538e-01f, -1.49454223e-01f, 7.86168868e-02f, -2.07758832e-01f, -8.17218107e-02f, 1.34616057e-01f,
    7.90010313e-02f, -1.87283565e-01f, 2.15005603e-01f, -2.67989411e-01f, 5.71294131e-02f, 2.90292300e-01f, 1.89028391e-02f, 1.80403092e-01f,
    5.71085839e-02f, 1.69852989e-01f, 9.33564812e-02f, 1.14679209e-01f, -1.63313309e-01f, 1.45092548e-01f, -1.57254068e-01f, 2.88384165e-01f,
    -1.63327685e-01f, -1.57989598e-01f, 2.15203872e-01f, -1.54208483e-01f, -8.34583239e-02f, 1.28784097e-01f, -2.04750852e-01f, -2.04556947e-01f,
    -8.18494604e-03f, -1.53781947e-01f, -1.58605227e-01f, -2.94456647e-01f, -7.77302453e-02f, -1.09049667e-01f, -2.81306514e-01f, 7.27399069e-02f,
    7.59931092e-02f, -2.57519717e-01f, -1.09775062e-01f, 2.23683319e-01f, 4.93002409e-02f, -5.28151656e-02f, -2.09388429e-02f, -1.75032003e-01f,
    1.87128900e-01f, 2.48402823e-01f, 2.46398425e-01f, -1.65639365e-01f, -1.13555839e-01f, -2.03626335e-01f, -1.15679320e-01f, -1.00316777e-01f,
    7.98634422e-02f, -1.86212171e-01f, 2.51638155e-01f, -2.38140318e-01f, -2.95873193e-01f, 2.12967077e-01f, 1.22261885e-01f, -8.67840778e-02f,
    5.72998235e-02f, -1.65873539e-01f, -1.98966211e-01f, -1.73105189e-02f, -8.80873022e-02f, 6.91380303e-02f, -1.69110489e-01f, 9.77566203e-02f,
    1.60116912e-01f, -2.00018314e-01f, -2.73685030e-01f, -3.62475748e-02f, 1.64414452e-01f, 9.04679013e-02f, 1.21129032e-01f, -5.82963960e-02f,
    -1.59032673e-01f, 1.90673060e-02f, -1.77380584e-01f, 1.35737218e-01f, -1.81820126e-01f, -1.25242040e-01f, 3.92686699e-03f, -7.97403951e-03f,
    6.05096258e-02f, -3.75332397e-02f, 2.51683985e-01f, 2.03960457e-01f, 2.27468071e-01f, 7.77099428e-02f, 8.10047495e-02f, 6.55192102e-02f,
    -3.90695073e-02f, -1.06736399e-01f, 5.52017325e-02f, -2.84680898e-01f, -2.95526141e-01f, 2.10985096e-01f, -2.72145573e-01f, 1.48770902e-02f,
    6.89926578e-02f, -1.81097262e-01f, 2.37438503e-01f, -1.85942537e-01f, 2.30708992e-01f, 1.57794162e-01f, -1.55554228e-01f, -2.09553500e-01f,
    -1.10260374e-01f, -6.12296602e-02f, -1.52529194e-01f, 2.99334929e-01f, -1.62208598e-01f, 1.98380896e-01f, -2.04529352e-01f, 2.88146775e-01f,
    -1.64685925e-01f, -4.69868671e-02f, 3.51384401e-02f, -2.27828571e-01f, 1.90092040e-01f, -1.35188680e-01f, 2.95619410e-02f, 2.97802864e-02f,
    6.15843914e-02f, -2.66708408e-01f, -1.98828743e-01f, -2.03284654e-01f, -1.18769244e-01f, -2.13051506e-01f, 2.53152792e-01f, 7.77267031e-03f,
    7.41450886e-02f, -8.55070948e-02f, -1.34252315e-01f, 1.90630214e-03f, -1.23406215e-01f, -9.38124446e-02f, -2.83494754e-02f, 3.44021231e-03f,
    2.90588407e-01f, -1.66006447e-01f, -7.21430107e-03f, -2.10292956e-01f, -9.00004604e-02f, 1.30386431e-01f, -1.95322714e-01f, 4.88107845e-02f,
    -4.99793859e-02f, -2.69052273e-01f, 2.59845145e-01f, -5.18381158e-02f, 1.70355921e-01f, -5.02119068e-02f, 2.62416193e-01f, -1.25717799e-01f,
    -5.26616102e-02f, 1.55318544e-01f, -9.37996108e-02f, -8.13857572e-02f, 2.96893904e-01f, 3.33687154e-02f, 1.13628272e-01f, 8.60773405e-02f,
    1.96754488e-01f, 2.17095060e-01f, 3.79536795e-02f, -1.23266355e-01f, -2.86319851e-01f, 6.86419506e-02f, 1.95281300e-01f, -2.96761167e-02f,
    -2.01176316e-01f, -1.27150756e-01f, 5.99335771e-03f, 2.02008731e-01f, -1.96948112e-01f, 6.72899254e-02f, 1.52021168e-01f, 2.61628512e-01f,
    -2.29977785e-01f, 2.55834980e-01f, 6.08805211e-02f, 1.60020952e-01f, -2.67735174e-01f, 3.68889338e-03f, 7.35778044e-02f, -1.15899696e-01f,
    -4.10098751e-02f, 0.0f, 3.25788812e-02f, 3.15287639e-02f, -2.74883085e-01f, -3.63109401e-02f, -1.71709107e-01f, 2.50017047e-01f,
};
alignas(4) static const Scalar bx0_k1_f2[] = {
    2.85947994e-01f, -1.20211862e-01f, -1.94888762e-01f, -1.68297509e-01f, -1.33486468e-02f, 2.24703359e-01f, 2.17289626e-05f, -2.66764763e-01f,
    -2.76068638e-01f, -1.63565433e-01f, 2.05662767e-01f, 7.28883345e-02f, 3.77747123e-02f, -1.08618244e-01f, 2.57655243e-01f, -1.01293053e-01f,
    2.00966648e-01f, 2.37542111e-01f, -9.99899207e-03f, 2.36573562e-01f, -1.33918028e-01f, 9.50600557e-02f, -2.47221751e-01f, -1.56394715e-02f,
    -1.69600919e-01f, -2.62342033e-01f, -2.97764695e-01f, -1.05148730e-01f, 5.37183567e-02f, -2.68617914e-02f, -1.18938421e-01f, 2.94720018e-01f,
};
alignas(4) static const Scalar Wskip0_k1_f2[] = {
    2.63715024e-01f, -2.24608016e-01f, -5.09355440e-02f, 8.93081604e-02f, 1.40094479e-01f, -8.01767071e-02f, 1.47769088e-01f, -2.25509992e-01f,
    -1.00912425e-01f, 1.29859905e-01f, 7.54096742e-02f, 2.02326129e-01f, -2.71885786e-01f, -1.95364969e-01f, -2.70903251e-01f, -1.84731465e-01f,
    -2.97430314e-01f, 2.52618101e-03f, 1.69886373e-02f, 9.47350688e-02f, -6.90525317e-02f, -2.98075386e-01f, 1.04334693e-01f, -2.67425347e-01f,
    2.19702258e-01f, -2.86407607e-01f, 1.82850740e-02f, 2.36950729e-01f, 4.34937455e-02f, 6.50500479e-02f, 1.08966509e-01f, -2.26554691e-01f,
    1.04956260e-01f, 2.28212929e-01f, 2.84532500e-01f, -3.41688004e-02f, -9.32970890e-02f, 1.51985769e-01f, 2.57245729e-02f, -1.45617207e-01f,
    -1.96705269e-01f, -1.97861820e-01f, -2.44937780e-02f, -1.97925357e-01f, -2.88168634e-01f, -2.68746735e-01f, 2.57930726e-01f, -2.56223195e-01f,
    -2.56091586e-01f, -2.92869327e-02f, -1.52939831e-01f, 2.77616311e-01f, 2.46591504e-01f, -5.71540508e-02f, -3.07610884e-02f, -7.49318082e-02f,
    -2.77280330e-01f, -1.24291896e-01f, -2.26395918e-01f, -2.38577802e-01f, 3.65169438e-02f, -2.40741085e-01f, -2.38241206e-01f, -1.16917711e-02f,
    -3.46305809e-02f, -2.17419129e-01f, -2.97330585e-01f, -1.84215335e-01f, -1.58464647e-01f, 1.80149066e-01f, 2.49263010e-01f, -5.64333615e-02f,
    -5.69839641e-02f, 1.27488770e-01f, 7.61532094e-02f, -1.89515888e-01f, -2.35386527e-01f, -3.74328656e-02f, 3.88970179e-02f, -2.16775438e-01f,
    -1.24035904e-01f, -1.16434202e-01f, -1.43221079e-01f, -2.35432402e-02f, 9.18381506e-02f, 5.63393017e-03f, -1.79126063e-01f, -2.38236572e-01f,
    1.93122278e-01f, -1.24171904e-02f, -2.62716490e-01f, -1.45127100e-01f, 1.82420267e-01f, 1.51035795e-01f, 2.25489980e-01f, 6.12526956e-02f,
    -4.62564394e-02f, -4.40190015e-02f, -1.83599973e-01f, 9.04793769e-02f, 5.10412537e-02f, -2.07081353e-01f, 2.31397752e-01f, -7.89190780e-02f,
    -2.70156741e-01f, -1.03271448e-01f, 2.21914029e-01f, 2.50173952e-01f, -5.76094964e-03f, 2.73803964e-01f, 2.25145086e-01f, 1.95138430e-01f,
    2.15826039e-01f, -7.08747527e-02f, 1.53881364e-01f, 4.64034018e-02f, 1.31810401e-01f, -1.93328335e-01f, 1.38836347e-01f, 2.74555461e-01f,
    -1.18402007e-01f, 2.91696794e-01f, -7.29743911e-02f, -1.80165902e-01f, -2.32628262e-01f, 1.70977148e-01f, 3.28952402e-02f, -1.15721224e-01f,
    6.50702219e-02f, -1.00739287e-01f, -3.09853456e-02f, 2.17598475e-01f, 1.00899886e-01f, 1.57441104e-01f, 5.00961309e-02f, 2.94838829e-01f,
    -1.55153960e-01f, -1.42625304e-01f, -2.44464637e-01f, 3.24117012e-02f, 6.80155418e-02f, 1.35576944e-01f, -9.87324444e-02f, -2.92645919e-01f,
    7.93377223e-02f, 2.99217296e-01f, -1.23270388e-01f, -1.89639329e-01f, -1.30939825e-01f, -4.47507151e-02f, -1.49452243e-01f, -9.18239848e-02f,
    8.29240431e-02f, -9.29832079e-02f, -6.23646331e-02f, -2.75981242e-01f, 2.50765501e-01f, -5.58684241e-02f, -1.03113890e-01f, -2.48109482e-01f,
    8.05099292e-02f, 2.18294970e-01f, -2.75308080e-01f, -2.12836520e-01f, -2.12166103e-01f, 6.13649132e-02f, 2.52738302e-01f, -3.73389798e-02f,
    -9.37161311e-02f, 1.59504411e-01f, 1.45541437e-01f, -1.51946316e-01f, -2.03504183e-01f, -8.53139806e-02f, 1.65362035e-01f, 1.17038034e-01f,
    9.95122238e-02f, 1.97657136e-01f, -1.33721813e-01f, -9.61897647e-02f, -2.74596330e-01f, 2.21247465e-01f, 4.94578410e-02f, -1.21126625e-01f,
    -2.58350081e-01f, 1.34045702e-01f, 1.49242512e-01f, 9.97071913e-02f, -1.77731417e-01f, 2.47929635e-01f, 1.51894811e-01f, 9.46537942e-02f,
    9.05663541e-02f, 2.42614620e-01f, 2.56984280e-01f, 5.73824508e-02f, -4.99983534e-02f, -8.17596123e-02f, 1.91447305e-01f, 8.67632039e-02f,
    -2.53640382e-01f, -2.14688392e-01f, 2.40111537e-01f, 2.30698889e-01f, 2.71099469e-01f, -4.32894196e-02f, 1.70436545e-01f, 1.96935016e-01f,
    -1.10581856e-01f, -2.12797373e-01f, 2.98215817e-01f, -2.81868478e-01f, 5.84015512e-02f, 9.01273645e-02f, 1.09073605e-01f, -1.46623354e-01f,
    1.32947547e-01f, -1.70160262e-01f, 1.97422953e-01f, -1.68529996e-01f, 1.18023617e-01f, 1.70048092e-01f, -1.86632550e-01f, -1.57208107e-01f,
    1.67462243e-01f, -2.48400617e-01f, -1.85543429e-01f, -2.66814563e-02f, 2.58109157e-01f, 3.71267009e-02f, -6.73932911e-02f, 2.87022133e-01f,
    -2.17732163e-02f, -3.97590158e-02f, -5.30134099e-02f, -1.12691956e-01f, -1.04583114e-01f, 1.12702236e-01f, -2.75498642e-01f, 1.09090035e-01f,
    -1.79277301e-01f, -6.94751981e-02f, -2.12076616e-01f, 3.16506264e-02f, 1.37610267e-01f, -8.72066544e-02f, -2.01950053e-01f, -1.64096651e-01f,
    1.90867751e-01f, -1.39410759e-01f, 1.64821556e-01f, -1.01280356e-01f, -1.86760467e-01f, 1.36385136e-01f, -1.88729823e-02f, -2.81233649e-01f,
    2.75965452e-01f, -2.11347933e-01f, -8.79558141e-02f, -6.91232190e-02f, -6.34206044e-03f, 1.71266413e-01f, -2.96345832e-01f, 2.59483231e-01f,
    8.75936761e-02f, 2.70389327e-01f, 1.90433722e-01f, 2.56702931e-01f, 6.06003306e-02f, -8.56146103e-02f, -3.42515621e-02f, 9.48193862e-02f,
    -4.38408841e-02f, 1.39003670e-01f, -2.44891190e-01f, 1.97991989e-01f, -1.77486816e-01f, 2.66368566e-01f, -2.06672520e-01f, -2.22501482e-01f,
    1.87125666e-01f, 1.91221097e-01f, 1.43255652e-01f, 2.76318278e-01f, -1.37676223e-01f, 1.95989243e-01f, -8.87756820e-02f, 2.24391753e-02f,
    -3.26399822e-02f, -2.96489986e-01f, 4.46773161e-02f, 1.48503533e-01f, -1.95268570e-01f, 2.58993517e-01f, 1.82397237e-02f, -1.93052398e-01f,
    8.75685426e-02f, -1.84846375e-01f, -2.61879991e-01f, 1.11189145e-01f, -2.33583070e-01f, -2.36269531e-01f, 1.43966138e-01f, -2.66878660e-01f,
    1.85861507e-01f, 1.77689255e-01f, -2.15163943e-01f, 1.10283884e-02f, -2.42024705e-01f, 7.95427319e-02f, -2.62241992e-01f, 2.66688514e-01f,
